tree
version=v4
num_class=1
num_tree_per_iteration=1
label_index=0
max_feature_idx=13
objective=binary sigmoid:1
feature_names=deepfake_prob audio_spoof_prob identity_drift hfer svd pdi etk pvss frd metadata_score noise_score spectral_peak_score fav frame_consistency
feature_infos=[-1:0.99336418161830997] [-1:0.96806493395452797] [-1:0.22562385117445033] [-1:0.41637361432149733] [-1:0.79093451849042484] [-1:0.15322140680383003] [-1:20.731245708534516] [-1:131.75846141642597] [-1:0.83415186575955824] [-1:0.98456503109955595] [-1:0.98004969441397471] [-1:0.90387745251438645] [-1:0.99017474771867053] [-1:0.95761134177860419]
tree_sizes=2023 3419 3426 3427 3422 3440 3444 3425 3427 3448 3424 3445 3425 3435 3434 3432 3445 3445 3445 3425 3428 3445 3430 3433 3426 3429 3446 3424 3450 3441 3429 3441 3445 3423 3431 3448 3436 3449 3429 3442 3430 3434 3425 3424 3439 3440 3425 3444 3447 3452 3458 3457 3445 3441 3452 3465 3455 3462 3450 3471 3453 3450 3467 3474 3457 3472 3464 3481 3471 3488 3466 3475 3486 3492 3494 3488 3474 3488 3482 3494 3505 3493 3487 3494 3508 3467 3471 3467 3498 3473 3498 3509 3496 3505 3515 3486 3504 3505 3513 3502 3501 3501 3511 3506 3512 3528 3535 3504 3516 3526 3518 3527 3517 3523 3548 3521 3531 3527 3523 3526 3533 3537 3551 3533 3541 3535 3542 3546 3563 3542 3554 3531 3543 3542 3567 3543 3541 3556 3553 3551 3549 3550 3567 3574 3572 3578 3574 3584 3591 3573 3567 3572 3584 3586 3579 3588 3576 3584 3594 3590 3585 3602 3585 3600 3617 3585 3608 3618 3591 3609 3604 3605 3627 3611 3601 3612 3621 3634 3613 3623 3609 3619 3622 3620 3606 3615 3631 3629 3636 3632 3628 3636 3622 3619 3635 3633 3633 3638 3643 3635 3673 3666 3656 3659 3661 3653 3649 3663 3653 3652 3675 3659 3679 3680 3668 3690 3667 3678 3677 3681 3673 3651 3688 3672 3676 3677 3679 3675 3683 3672 3677 3673 3686 3672 3682 3677 3673 3677 3687 3678 3695 3697 3372 3360 3355 2905 2555 2442 2550 2431 2545 2555 2665 2432 2441 2438 2218 2208 1984 1984 1980 1872 1743 1863 1753 1641 1519 1529 1519 1520 1520 1413 1523 1525 1408 1183 1295 1178 1180 1180 1300 1063 1057 1180 1071 1065 955 1061 1062 1064 1070 1064 949 951 953 842 838 845 721 845

Tree=0
num_leaves=19
num_cat=0
split_feature=11 10 6 3 13 12 3 0 3 13 0 0 10 12 2 0 3 0
split_gain=1841.54 553.231 154.97 125.729 65.7335 49.641 40.091 28.0007 19.3417 34.8922 4.53333 3.64002 3.29042 16.6439 1.74105 0.715852 0.492308 0.121569
threshold=0.2867966536832402 0.51253499921404677 6.7617290704251349 0.23663031995786063 0.52177530302905495 0.3803177239538667 0.21316536439235984 0.6822156467588284 0.20406888569131038 0.26541510806479646 0.5782630921186106 0.4177360250716402 0.34966525333948956 0.28765994899687314 0.024331189928129614 0.62479476360456099 0.26965656832043317 0.67811909545871674
decision_type=2 2 2 2 2 2 2 2 2 2 2 2 2 2 2 2 2 2
left_child=1 2 4 8 7 16 11 14 12 -10 -4 -3 13 -2 15 -1 -5 -11
right_child=3 6 10 5 -6 -7 -8 -9 9 17 -12 -13 -14 -15 -16 -17 -18 -19
leaf_value=-0.10000000000000001 0.021212121212121213 0.063636363636363644 0.040000000000000008 -0.079999999999999946 0.080952380952380956 0.076923076923076927 -0.023529411764705882 -0.0032258064516129032 -0.042857142857142844 0.090000000000000024 0.10000000000000001 0.10000000000000001 0.10000000000000001 0.10000000000000001 -0.069999999999999993 -0.081818181818181832 -0.10000000000000001 0.099999999999999992
leaf_weight=344.75 8.2499999999999982 8.2499999999999982 4.9999999999999991 5.0000000000000027 5.2499999999999991 6.4999999999999991 8.4999999999999982 7.7499999999999991 7.0000000000000027 4.9999999999999982 8.4999999999999982 41.5 263 35.75 4.9999999999999991 5.4999999999999991 7.9999999999999991 7.75
leaf_count=1379 33 33 20 20 21 26 34 31 28 20 34 166 1052 143 20 22 32 31
internal_value=0.00117647 -0.0667045 -0.0886051 0.0874368 -0.0947047 -0.0358974 0.076824 -0.0972452 0.0947972 0.0468354 0.0777778 0.0939698 0.0978827 0.0852273 -0.0992963 -0.0997145 -0.0923077 0.0960784
internal_weight=786.25 440 381.75 346.25 368.25 19.5 58.25 363 326.75 19.75 13.5 49.75 307 44 355.25 350.25 13 12.75
internal_count=3145 1760 1527 1385 1473 78 233 1452 1307 79 54 199 1228 176 1421 1401 52 51
is_linear=0
shrinkage=0.05


Tree=1
num_leaves=31
num_cat=0
split_feature=10 8 6 3 9 13 0 3 12 9 13 13 12 0 12 4 13 8 6 3 10 12 10 6 5 2 3 10 8 8
split_gain=1661.51 580.3 120.312 99.2269 79.9957 65.2692 14.3541 12.457 7.66123 25.0094 6.42528 4.55222 2.46573 1.09521 0.664119 2.32094 0.612475 0.410256 0.206035 0.511971 0.00856463 0.00817467 0.00358132 0.00240333 0.00567276 0.00189189 0.00143141 0.00134107 0.00136857 0.00247058
threshold=0.40727514248044322 0.21263008295102712 7.0968223232126446 0.21316536439235984 0.30723682530413537 0.46336524285404318 0.6822156467588284 0.22633490532084141 0.20972476727257891 0.36101885547151419 0.20027359896943228 0.3607776984430679 0.4977104182474949 0.34456282007524802 0.3310528551750716 0.20323541211858986 0.1828472346660247 0.06609765246097403 5.5562171780750544 0.22009335389998638 0.48596209087997416 0.21802605835577282 0.64487276741971711 5.6439020124032266 0.013115023782591311 0.023316537248857652 0.20324153594556785 0.51801250526495235 0.21561665784956408 0.082490726242548121
decision_type=2 2 2 2 2 2 2 2 2 2 2 2 2 2 2 2 2 2 2 2 2 2 2 2 2 2 2 2 2 2
left_child=1 2 5 8 10 6 12 13 9 -2 20 -6 18 -3 15 -10 -11 -4 25 -20 -5 -15 -13 24 -23 -1 27 28 29 -16
right_child=3 7 17 4 11 -7 -8 -9 14 16 -12 22 -14 21 26 -17 -18 -19 19 -21 -22 23 -24 -25 -26 -27 -28 -29 -30 -31
leaf_value=-0.095378093983551834 -0.0036052445842575422 0.073880332126344747 0.075476331439882957 -0.095340604347799229 0.039824742648755615 0.061069736810141821 -0.022292322622961189 0.010363194785814576 0.056317040899601725 0.07627880508344588 -0.028776663977865269 0.096211684746888348 -0.062091238740275626 0.097659102649280904 0.095449266156035828 0.095390462573061718 0.095425323034750584 0.095753625457749181 -0.076327766724423818 -0.09602776147366715 -0.098072779295820131 0.097480277134613935 0.09800849499004953 0.095345265256122039 0.095272969712737479 -0.096335426726699758 0.096131194848029095 0.095277130537003499 0.09540893553255364 0.096885624594674535
leaf_weight=331.94293314218521 8.7300166487693769 6.4866837412118903 4.9885688424110395 6.7336623817682284 4.9917620867490795 6.9855462908744803 6.9958154559135428 4.9900413751602164 4.9882629215717342 4.9878918975591686 4.9921376407146445 4.9905201196670514 5.7357673943042746 5.4946421533823004 7.4826059788465482 15.961161851882933 25.687575235962868 4.9892365336418152 4.9894530773162833 9.7286041378974897 4.9968704134225845 4.99149242043495 6.2415573298931122 27.683075681328773 6.9827440530061722 5.2422086745500556 5.7382381856441489 201.7515267431736 32.921595573425293 4.9903394430875778
leaf_count=1331 35 26 20 27 20 28 28 20 20 20 20 20 23 22 30 64 103 20 20 39 20 20 25 111 28 21 23 809 132 20
internal_value=0.00112031 -0.0635573 -0.0857221 0.0829939 0.000454135 -0.0903224 -0.0932227 0.0858018 0.0916755 0.0710622 -0.076286 0.0795538 -0.0946102 0.0930917 0.0946418 0.0860867 0.0923121 0.0856157 -0.0951402 -0.0893494 -0.0965044 0.0958517 0.0972102 0.0956013 0.0961931 -0.095393 0.0953505 0.0953324 0.0955779 0.0960239
internal_weight=784.413 438.227 381.598 346.186 32.9465 371.62 364.635 56.6287 313.239 39.4055 16.7227 16.2238 357.639 51.6386 273.834 20.9494 30.6755 9.97781 351.903 14.7181 11.7305 45.152 11.2321 39.6573 11.9742 337.185 252.884 247.146 45.3945 12.4729
internal_count=3145 1757 1530 1388 132 1490 1462 227 1256 158 67 65 1434 207 1098 84 123 40 1411 59 47 181 45 159 48 1352 1014 991 182 50
is_linear=0
shrinkage=0.05


Tree=2
num_leaves=31
num_cat=0
split_feature=11 8 10 3 8 4 3 8 13 1 8 10 13 0 6 2 13 5 0 10 3 6 3 8 10 10 8 0 2 10
split_gain=1523.44 514.942 145.355 98.4081 51.4718 39.13 14.344 27.4547 12.0098 9.27128 5.45018 2.19175 12.2775 1.92301 0.491722 0.471791 0.172293 0.151179 0.11768 0.073474 0.0336333 0.0145011 0.00780152 0.00646393 0.00415205 0.00403764 0.00347674 0.00291313 0.00194949 0.000759193
threshold=0.28908846609892552 0.23165080383161604 0.57155187215326964 0.23663031995786063 0.20756573105459267 0.33896610148725037 0.20406888569131038 0.14276981969290239 0.40030788548307789 0.44481732563762461 0.26593016190975366 0.34966525333948956 0.1660884642738148 0.64054556400433815 4.8767073158757617 0.0054456584414802603 0.28515699010146822 0.022014804868779467 0.67137234395587997 0.41234234037907475 0.20896064996149832 6.2706024253884047 0.19162692229123671 0.19972731828536575 0.47691234264658366 0.22607817175661379 0.20360401857950799 0.46054990799328038 0.022138839285823803 0.3736498095583935
decision_type=2 2 2 2 2 2 2 2 2 2 2 2 2 2 2 2 2 2 2 2 2 2 2 2 2 2 2 2 2 2
left_child=1 2 5 6 15 8 11 -8 13 -4 -3 12 -2 17 -9 -5 -14 19 -11 21 -21 26 25 -18 -22 -12 28 -27 -1 -13
right_child=3 10 9 4 -6 -7 7 14 -10 18 22 29 16 -15 -16 -17 23 -19 -20 20 24 -23 -24 -25 -26 27 -28 -29 -30 -31
leaf_value=-0.091169675897328495 0.01827910637269968 0.038119424837742499 0.0068868633982326725 -0.092507274085632044 0.09448528565703801 0.021026257996998834 -0.041432773943160459 0.073620055174175844 -0.021916761853611355 0.08261912269349414 0.093081684963425851 0.091835955795750768 0.082106447412056513 -0.066819196133466222 0.093560515613109477 -0.072964069083070668 0.093396072860580742 -0.083025156611878717 0.09277915886534141 -0.098064538025290637 -0.092389454193772313 -0.093931766389102681 0.093837135749519074 0.091727633855118951 -0.094255068364207814 0.092691145796942431 -0.09240550401543618 0.091390407696981368 -0.09214486799526872 0.091226044617160051
leaf_weight=307.83083628118038 6.9652969837188712 5.2203011661767951 4.9678907990455654 8.1878858059644717 5.7253243029117575 8.1908976435661298 6.2198727726936367 4.9630155861377707 6.4578076153993598 4.9606632143259031 4.969799891114234 5.2066596597433081 4.9584204107522956 8.2205563932657224 8.1992728114128095 4.9581819772720328 7.7041800618171719 5.449548363685607 6.6985338181257248 4.9898552149534252 6.947565019130705 4.9650496244430533 4.9730989933013907 23.551442176103592 5.2254584729671478 4.9685089439153662 5.9547775387763968 32.207441970705986 5.2115970551967612 254.36335726082325
leaf_count=1243 28 21 20 33 23 33 25 20 26 20 20 21 20 33 33 20 31 22 27 20 28 20 20 95 21 20 24 130 21 1027
internal_value=0.00107116 -0.0605795 -0.0805316 0.0803324 -0.0306416 -0.0870402 0.0868335 0.0451342 -0.0894905 0.0640848 0.0865937 0.0895031 0.0790724 -0.0907204 0.0860417 -0.0851363 0.0907652 -0.0912873 0.0884563 -0.0914193 -0.0946074 -0.0912504 0.0919642 0.0921389 -0.0931903 0.0917432 -0.0912087 0.0915642 -0.0911859 0.0912383
internal_weight=779.413 438.41 386.071 341.003 18.8714 369.444 322.132 19.3822 361.253 16.6271 52.3392 302.749 43.1793 354.795 13.1623 13.1461 36.214 346.575 11.6592 341.125 17.1629 323.962 47.1188 31.2556 12.173 42.1458 318.997 37.176 313.042 259.57
internal_count=3145 1769 1558 1376 76 1491 1300 78 1458 67 211 1222 174 1432 53 53 146 1399 47 1377 69 1308 190 126 49 170 1288 150 1264 1048
is_linear=0
shrinkage=0.05


Tree=3
num_leaves=31
num_cat=0
split_feature=7 3 8 11 10 9 10 9 9 13 9 13 8 11 9 9 10 11 0 3 10 9 0 10 10 12 11 8 12 10
split_gain=1546.97 356.319 128.448 52.6748 87.8925 32.9632 30.3662 25.6011 9.25217 3.08753 1.16631 6.09321 1.15588 0.624654 0.147759 0.139117 0.132531 0.0548137 0.0524171 0.047216 0.045967 0.0441645 0.130486 0.0377382 0.0179295 0.0206499 0.0128936 0.0115004 0.0095721 0.00707758
threshold=27.085951167461428 0.21447462680574012 0.20756573105459267 0.20088132193312358 0.31422555193948437 0.44077506073663969 0.57909887529919024 0.45443666848133207 0.36553077747163853 0.40030788548307789 0.2665491447733836 0.1709686418036597 0.30992064977103667 0.23438541745372846 0.11472499062840502 0.49304896234322654 0.11254940050547234 0.29794610466703159 0.65155467715601811 0.23663031995786063 0.47282695572629002 0.37515322254495403 0.59066948084715831 0.50962178104936795 0.32672715200199959 0.28765994899687314 0.2614348259162696 0.20360401857950799 0.40923372659211771 0.40727514248044322
decision_type=2 2 2 2 2 2 2 2 2 2 2 2 2 2 2 2 2 2 2 2 2 2 2 2 2 2 2 2 2 2
left_child=1 3 7 4 5 16 9 13 -6 15 11 -5 -4 -3 28 17 -1 18 20 -19 27 22 -12 -10 25 -23 -26 29 -13 -2
right_child=6 2 12 10 8 -7 -8 -9 23 -11 21 14 -14 -15 -16 -17 -18 19 -20 -21 -22 24 -24 -25 26 -27 -28 -29 -30 -31
leaf_value=-0.077985974899315927 -0.087668698901274628 -0.088190915998753464 0.061812896606545979 0.034861618768667217 0.03034867770305116 0.063728283996834764 0.034789426343550346 0.027432081688636069 0.092363305381687688 -0.048119883320996509 0.078356814099066918 0.089898979206863516 0.090703979105352994 -0.069484342558635739 0.078979702744575039 -0.079821595032668932 -0.087935620774034315 -0.094378503976147013 -0.093041748885917375 -0.088725567286023516 -0.092302099118637293 0.091896539419765028 0.087902171089828077 0.088172722726697683 0.0894513840442418 0.088427489036805487 0.087623465437019585 -0.089992756890199199 0.087831562831862026 -0.089146604258782125
leaf_weight=4.9040925949811962 255.07599233090878 47.833004981279373 4.9325725585222271 6.6487392485141745 8.3744893819093686 4.9293246418237677 5.1775785088539115 5.4447683542966834 6.677541345357894 4.941393941640853 4.9071515500545528 7.3962384611368206 11.612110912799833 4.9218141585588446 4.9014255702495566 5.1522003114223471 10.540484160184858 6.2206206470727912 4.9641161412000647 9.0939032584428769 5.6970847994089118 4.9556836187839499 13.241100311279295 27.488479360938072 10.09690862894058 31.926163628697395 216.58213496208191 5.663960099220275 23.037619322538376 8.366575285792349
leaf_count=20 1041 195 20 27 34 20 21 22 27 20 20 30 47 20 20 21 43 25 20 37 23 20 54 112 41 130 884 23 94 34
internal_value=0.00102799 0.0590908 -0.0408446 0.0784117 0.0365489 -0.0488467 -0.0852845 -0.075792 0.0774473 -0.0873217 0.0865483 0.0787739 0.0820905 -0.0864457 0.0870364 -0.0879669 -0.0847763 -0.0881091 -0.0879496 -0.0910217 -0.0878577 0.087707 0.0853212 0.0889917 0.0878712 0.0888936 0.0877049 -0.0877636 0.088334 -0.0877156
internal_weight=771.705 461.352 74.7443 386.608 62.9144 20.3739 310.353 58.1996 42.5405 305.176 323.693 41.984 16.5447 52.7548 35.3353 300.234 15.4446 295.082 279.768 15.3145 274.804 281.709 18.1483 34.166 263.561 36.8818 226.679 269.107 30.4339 263.443
internal_count=3145 1880 304 1576 256 83 1265 237 173 1244 1320 171 67 215 144 1224 63 1203 1141 62 1121 1149 74 139 1075 150 925 1098 124 1075
is_linear=0
shrinkage=0.05


Tree=4
num_leaves=31
num_cat=0
split_feature=7 3 12 11 9 4 12 11 1 12 9 9 12 9 0 0 7 3 12 9 6 11 0 3 6 2 2 11 6 3
split_gain=1415.68 326.197 114.961 46.5015 77.2769 36.9048 22.4946 15.5198 11.0075 5.97551 4.07672 1.13851 5.96364 1.09149 0.484434 0.421193 0.170076 0.143522 0.0755339 0.0422618 0.131847 0.0388792 0.0381552 0.0310872 0.0154499 0.0117912 0.0117073 0.0108694 0.00972422 0.0116886
threshold=27.085951167461428 0.21316536439235984 0.38367524797077351 0.20088132193312358 0.42326291652366338 0.27794679416475199 0.53510021355544568 0.2867966536832402 0.34826523055888364 0.34072162656567379 0.46789268461966121 0.2665491447733836 0.28315992944215379 0.48943003306587757 0.49108529489371688 0.34456282007524802 3.0835320270492264 0.17162674939806769 0.43797686954462872 0.37515322254495403 5.99729793770888 0.28235867733219183 0.65155467715601811 0.23663031995786063 1.0654413336071595 0.0033537466794629415 0.01339598610973426 0.27032049986937984 5.0206245891960561 0.19281193960478135
decision_type=2 2 2 2 2 2 2 2 2 2 2 2 2 2 2 2 2 2 2 2 2 2 2 2 2 2 2 2 2 2
left_child=1 3 7 4 5 9 10 14 -4 15 18 12 -5 -6 26 25 -10 -14 21 20 -13 22 28 -23 -15 -1 -3 -21 -2 -30
right_child=6 2 8 11 13 -7 -8 -9 16 -11 -12 19 17 24 -16 -17 -18 -19 -20 27 -22 23 -24 -25 -26 -27 -28 -29 29 -31
leaf_value=-0.088165346859325699 -0.08468916267836897 -0.084959338921444957 -0.00035357465211292849 0.031201644523587698 0.061500992718977236 0.080961158785388607 0.021754972660075027 0.0097713742264053105 0.07851898791488722 -0.01637175242179954 -0.049258634680927567 0.075130093869630168 0.085047591498884634 0.088521743343808204 -0.068650339975356647 -0.068381904970198137 0.089889914086349013 0.075774629144869099 -0.080097053602229074 0.086012623501725505 0.084788034133742141 -0.089743890842462454 -0.08922748211961859 -0.085580673569388463 0.085461708826734928 -0.08468238647834915 -0.087552354207714456 0.084607753935920904 -0.087814850685797183 -0.085136766781229029
leaf_weight=4.8848338276147896 238.81586112082005 40.64534255862236 4.8711367547512081 6.386119306087493 5.3538982272148123 5.6317223608493796 5.1226670145988455 4.8777030408382407 4.8798276633024207 4.8538520634174338 8.2561510652303678 4.8443283289670971 30.018506795167923 4.8959320038557079 4.8733221888542166 4.8412344455718985 10.083819121122358 4.8464366793632498 8.0113161802291852 14.587622761726378 13.06256118416786 7.3898889720439938 4.9186012893915168 11.402991607785223 26.192351162433624 4.835295781493187 4.8750987350940695 245.06183698773384 5.3642495721578625 16.943158477544785
leaf_count=20 988 168 20 26 22 23 21 20 20 20 34 20 124 20 20 20 41 20 33 60 54 30 20 47 108 20 20 1014 22 70
internal_value=0.00098955 0.0568886 -0.038333 0.0756942 0.0358828 -0.0317287 -0.0821407 -0.0753901 0.0649299 -0.0644163 -0.0839083 0.0833728 0.0756222 0.0823526 -0.083633 -0.0804314 0.0861817 0.0837586 -0.0848852 0.0845247 0.0821753 -0.0850199 -0.0848646 -0.0872178 0.0859436 -0.0864327 -0.085237 0.0846867 -0.0847824 -0.0857808
internal_weight=761.628 455.403 75.1063 380.297 61.4891 25.0469 306.225 55.2715 19.8348 19.4152 301.102 318.807 41.2511 36.4422 50.3938 14.5614 14.9636 34.8649 292.846 277.556 17.9069 284.835 266.042 18.7929 31.0883 9.72013 45.5204 259.649 261.123 22.3074
internal_count=3145 1880 309 1571 253 103 1265 228 81 80 1244 1318 170 150 208 60 61 144 1210 1148 74 1177 1100 77 128 40 188 1074 1080 92
is_linear=0
shrinkage=0.05


Tree=5
num_leaves=31
num_cat=0
split_feature=7 3 8 8 11 8 10 12 10 8 6 2 3 10 13 11 11 13 12 13 10 11 12 10 3 10 12 8 8 12
split_gain=1312.22 272.389 117.789 60.4936 38.9961 69.0118 33.5218 21.5551 17.3047 1.63264 1.15195 0.922474 0.713682 1.71251 0.525053 0.497984 0.0877215 0.0618127 0.501944 0.0257207 0.0211294 0.018084 0.0127454 0.0232763 0.0118924 0.0114633 0.0092832 0.00798892 0.00701401 0.00646465
threshold=25.439345289253765 0.21218078791283354 0.20756573105459267 0.24007822184306904 0.19772604379203837 0.17658147953949399 0.37761848681989307 0.39947803590592562 0.56394396663279156 0.21561665784956408 3.8160578805794914 0.0058923315284413825 0.19422360840832789 0.51801250526495235 0.27187145679883756 0.22281154621296842 0.41090176953265739 0.04954719604221447 0.33775856129706722 0.37841846537495633 0.40321798491879884 0.29282017274004862 0.26440201630907939 0.34966525333948956 0.21738077509713685 0.38455482407765329 0.48930804631227037 0.20518458726210562 0.27734715776614571 0.58647292250303051
decision_type=2 2 2 2 2 2 2 2 2 2 2 2 2 2 2 2 2 2 2 2 2 2 2 2 2 2 2 2 2 2
left_child=1 4 7 8 5 6 11 14 16 -7 -4 -1 15 -14 -3 -6 19 18 -17 20 21 26 23 -19 -22 -20 27 -2 -11 -12
right_child=3 2 10 -5 12 9 -8 -9 -10 28 29 -13 13 -15 -16 17 -18 22 25 -21 24 -23 -24 -25 -26 -27 -28 -29 -30 -31
leaf_value=-0.083269123808451237 -0.081834441120936907 -0.082531082004053666 0.056802301052481699 0.072919155600396135 0.066777022498696992 0.052058102395484897 0.05188121640544871 0.018692048130244356 0.012904969396090524 0.084896619003637749 0.086597726926789062 -0.056755346087035988 0.045572852060552199 0.081899173208604598 -0.065097083173026316 0.065472530320487249 -0.075506951916179621 0.085575012985115315 0.084547975067454428 -0.085761273489155201 -0.085916863974248844 -0.084267108281805281 0.081750145980297201 0.082212459149334116 -0.082955798017468524 0.081858386701424576 -0.083987559875134843 -0.083843786415657706 0.08290869239819107 0.08435079556260873
leaf_weight=10.29545731842518 258.98515585064888 43.167831838130951 4.8547225594520595 6.5586711764335623 5.7460575997829428 4.8301633149385443 7.9759369790554038 6.1427122950553885 4.8764929473400107 5.3184417039155951 5.3566238135099393 4.8147840648889533 4.8059120625257483 9.9850533902645093 4.7987446188926688 5.2740809917449942 5.0576259046792975 6.0628023296594611 4.8268043696880367 4.843620926141738 4.8556433916091946 8.4230065345764142 215.89661864936352 34.053682312369347 11.240835055708883 22.1028743237257 5.2935244888067237 5.0430660545825949 26.778090462088585 7.9552302956581116
leaf_count=43 1090 181 20 27 24 20 33 25 20 22 22 20 20 42 20 22 21 25 20 20 20 35 909 143 47 93 22 21 112 33
internal_value=0.000570096 0.0562485 -0.0325087 -0.0773433 0.0736444 0.0367645 -0.031047 -0.0694937 -0.0805366 0.0791596 0.0776514 -0.0748207 0.0808127 0.0700959 -0.0807869 0.0813519 -0.0820368 0.0816425 0.079578 -0.0821474 -0.0820878 -0.0819857 0.0819022 0.0827206 -0.083849 0.0823405 -0.0819144 -0.0818728 0.0832381 0.0852549
internal_weight=756.22 441.043 72.2759 315.178 368.767 60.0129 23.0862 54.1093 308.619 36.9267 18.1666 15.1102 308.754 14.791 47.9666 293.963 303.742 288.217 32.2038 298.685 293.841 277.745 256.013 40.1165 16.0965 26.9297 269.322 264.028 32.0965 13.3119
internal_count=3172 1849 301 1323 1548 250 96 226 1296 154 75 63 1298 62 201 1236 1276 1212 135 1255 1235 1168 1077 168 67 113 1133 1111 134 55
is_linear=0
shrinkage=0.05


Tree=6
num_leaves=31
num_cat=0
split_feature=7 11 9 10 10 1 2 10 9 6 11 12 11 9 1 6 0 10 0 10 10 6 11 9 10 5 9 9 9 12
split_gain=1207.71 242.724 176.349 53.5613 47.9175 8.83526 7.41044 6.67628 19.3206 19.1626 5.76978 0.995053 0.267421 0.997272 0.120279 0.107549 0.100153 0.0492406 0.0278144 0.0267252 0.0230537 0.0159487 0.0160559 0.0104237 0.00996615 0.00902225 0.0130669 0.00779362 0.00731718 0.00671193
threshold=25.439345289253765 0.22281154621296842 0.41852354134690228 0.57909887529919024 0.51253499921404677 0.28149832751145754 0.015496073345114528 0.23271859818202809 0.43300239937340707 5.1714041714413215 0.41778117843602097 0.49560959696524115 0.28235867733219183 0.44077506073663969 0.33195158643247352 5.0552338728764115 0.30939960434309227 0.36001479767773076 0.66798257216840218 0.48596209087997416 0.50962178104936795 6.2706024253884047 0.28235867733219183 0.68899294294972047 0.34356059614665019 0.0024671785814110113 0.22242918483306306 0.48395701919496248 0.51613239121912902 0.47402225420875521
decision_type=2 2 2 2 2 2 2 2 2 2 2 2 2 2 2 2 2 2 2 2 2 2 2 2 2 2 2 2 2 2
left_child=1 2 4 10 6 -4 15 8 9 -3 11 18 13 -9 -10 17 -7 25 19 21 23 22 27 -18 28 26 -1 -2 -14 -16
right_child=3 7 5 -5 -6 16 -8 12 14 -11 -12 -13 24 -15 29 -17 20 -19 -20 -21 -22 -23 -24 -25 -26 -27 -28 -29 -30 -31
leaf_value=-0.080031899275051388 -0.079321067864522865 -0.064835267254736137 0.017235177997669687 0.051156770898406714 0.046820845901400662 0.073036068518449376 -0.015072586094964214 0.053669430327967386 0.072010545853827615 0.072367846018801932 -0.025172194590268978 -0.056577222535930394 0.082451609934962436 0.081494653704593883 0.081844321204824488 -0.072879267629423969 0.084345670704251613 -0.085474375664686741 -0.083401604817740144 -0.083178784928632343 0.079922971935958251 -0.082372156992065904 -0.081164445083032333 0.081111647258661629 0.079491156842880287 -0.079589063933016124 -0.082592451282108348 -0.08112358436703021 0.080051934532154381 0.080011527140123689
leaf_weight=13.1112177670002 257.618289321661 5.5353861004114133 6.6612817198038092 8.2008281201124174 9.3510865867137891 4.7344478815793982 4.7617745250463477 4.7141139805316916 4.9163435697555569 4.7105016261339188 5.0152701288461676 4.7597976177930823 4.7455099821090689 10.161015868186949 7.8238269835710552 4.7204478085041037 5.2769089639186877 5.0137596279382697 4.7936992198228827 5.0160464942455283 21.996910735964775 4.74126973748207 12.977951034903525 4.7203979045152664 254.64358706772327 24.042556390166283 8.0364458262920362 6.1397333145141593 9.6094088703393918 13.817074984312056
leaf_count=56 1106 23 28 34 39 20 20 20 21 20 21 20 20 43 33 20 22 21 20 21 94 20 55 20 1092 103 34 26 41 59
internal_value=0.000551392 0.0544417 -0.00877449 -0.0749187 -0.0584193 0.0702148 -0.0749073 0.0766049 0.0565683 -0.00175674 -0.078353 -0.0792539 0.0792025 0.0726765 0.0790703 -0.0800948 0.0798234 -0.0807732 -0.0796244 -0.0795612 0.0808278 -0.0794968 -0.0794475 0.0828187 0.0795634 -0.0802517 -0.0810049 -0.079363 0.0808452 0.0806741
internal_weight=742.367 433.104 112.427 309.263 69.0373 43.3899 59.6862 320.677 36.8031 10.2459 301.062 296.047 283.874 14.8751 26.5572 54.9244 36.7287 50.204 291.287 286.493 31.9942 281.477 276.736 9.99731 268.999 45.1902 21.1477 263.758 14.3549 21.6409
internal_count=3172 1849 477 1323 293 184 254 1372 156 43 1289 1268 1216 63 113 234 156 214 1248 1228 136 1207 1187 42 1153 193 90 1132 61 92
is_linear=0
shrinkage=0.05


Tree=7
num_leaves=31
num_cat=0
split_feature=7 3 8 8 9 0 13 0 9 1 8 5 1 4 12 9 13 7 1 3 12 0 13 12 8 8 6 12 12 13
split_gain=1113.97 234.394 100.674 53.6683 30.1657 55.5124 33.8664 22.9563 10.997 4.93311 8.14324 1.09211 1.0162 0.973314 0.773154 0.727815 1.2475 0.166898 0.999112 0.152406 0.0404953 0.0229998 0.0224675 0.0136891 0.0130834 0.0110804 0.0130018 0.00993948 0.00756134 0.00732294
threshold=25.439345289253765 0.21218078791283354 0.20756573105459267 0.25597264450403184 0.35293914272836319 0.44587002738029896 0.33605895685923742 0.61018658501311296 0.53041701029216115 0.37132026114631606 0.17658147953949399 0.002970117638365096 0.51142605190382495 0.31438308392755199 0.23614290012180258 0.39485706337634491 0.32617908545104468 -1.0000000180025095e-35 0.31535736321962243 0.0080655979158873268 0.3554430288364589 0.63317403745073697 0.38024581149064002 0.29113417247495826 0.20756573105459267 0.24428057454159149 0.9338935762912669 0.47052551372730861 0.11136386987797069 0.44379611277145598
decision_type=2 2 2 2 2 2 2 2 2 2 2 2 2 2 2 2 2 2 2 2 2 2 2 2 2 2 2 2 2 2
left_child=1 4 7 8 5 6 14 12 13 10 -7 -4 20 21 28 16 -6 18 -17 -11 -3 22 24 -21 27 26 29 -2 -1 -19
right_child=3 2 11 -5 15 9 -8 -9 -10 19 -12 -13 -14 -15 -16 17 -18 25 -20 23 -22 -23 -24 -25 -26 -27 -28 -29 -30 -31
leaf_value=-0.08268316570100287 -0.07725145463434438 -0.078040819843797293 0.052041205017583685 0.075824935767313931 0.043952815405881293 -0.011007156451793275 0.067090528354341886 0.038368647722542212 -0.0033022113398948737 0.06856882045923221 0.078041372436556039 0.080159374314565351 -0.054038302483283944 -0.059937381972771125 -0.056398687646270124 0.052068267352319064 0.07782265445026916 0.080415948308616883 0.077281068318298063 0.080785925167625672 -0.082838758296683884 -0.080399561961553498 -0.080834829303858269 0.077876428654024166 -0.079907712387704555 0.077148938390848409 0.077566145345784057 -0.079229871752965031 -0.079839695541386632 0.078184360413735207
leaf_weight=4.7153212577104586 260.91684712469578 37.870477259159088 4.7191004455089596 5.9605226069688788 4.5987933874130231 4.6466699838638288 6.2316002994775763 4.8168940395116797 5.1532020270824423 4.5900229662656775 5.7372272461652756 12.874129444360731 4.6710501015186301 8.1384653747081739 4.690584033727645 4.6281750202178982 6.6497968137264252 6.7621891349554053 26.019803270697594 4.7123929858207694 4.9756050407886496 6.5667531639337531 4.6954855918884268 28.449931755661964 4.8965103626251212 162.340471804142 67.032226964831352 6.5067735463380805 4.6372648328542709 8.0554205030202848
leaf_count=20 1144 165 20 25 20 20 27 20 22 20 25 55 20 35 20 20 29 29 114 20 21 28 20 124 21 712 293 28 20 35
internal_value=0.000534704 0.0528061 -0.0308556 -0.0727242 0.069309 0.0394823 -0.0299178 -0.0656402 -0.0757067 0.0687133 0.0381932 0.0726171 -0.0761837 -0.0769857 -0.0729649 0.0764414 0.0639756 0.0769516 0.0734737 0.077108 -0.078598 -0.0774749 -0.0774056 0.0782899 -0.0773465 0.0773881 0.0778624 -0.0772996 -0.0812733 0.0792028
internal_weight=727.26 424.425 69.9273 302.835 354.498 68.411 20.2748 52.334 296.874 48.1362 10.3839 17.5932 47.5171 291.721 14.0432 286.087 11.2486 274.838 30.648 37.7523 42.8461 283.582 277.016 33.1623 272.32 244.19 81.8498 267.424 9.35259 14.8176
internal_count=3172 1849 301 1323 1548 296 87 226 1298 209 45 75 206 1276 60 1252 49 1203 134 164 186 1241 1213 144 1193 1069 357 1172 40 64
is_linear=0
shrinkage=0.05


Tree=8
num_leaves=31
num_cat=0
split_feature=7 3 8 8 11 9 8 9 10 6 8 10 9 11 4 6 11 8 3 5 10 0 11 10 10 10 9 11 6 11
split_gain=1029.73 216.835 92.7522 49.674 31.5421 56.0857 37.1269 21.8793 14.6392 1.41467 1.07901 0.980092 0.761759 4.22331 0.575307 0.138367 0.0763124 0.0307204 0.027852 0.164097 0.0214312 0.017027 0.0152417 0.0123902 0.0122273 0.0116841 0.010888 0.0112796 0.00976056 0.00851899
threshold=25.439345289253765 0.21218078791283354 0.20756573105459267 0.24007822184306904 0.19772604379203837 0.39485706337634491 0.19972731828536575 0.45443666848133207 0.56394396663279156 4.1317893579047782 0.31179759974802884 0.3014096584286407 0.22559848616333097 0.3148605138210771 0.26918065969960042 0.86135992903901848 0.41090176953265739 0.24428057454159149 -1.0000000180025095e-35 0.001777933214102711 0.36001479767773076 0.66798257216840218 0.19772604379203837 0.21878644646065745 0.40321798491879884 0.64487276741971711 0.48395701919496248 0.28235867733219183 6.0676545262769439 0.24044995411920145
decision_type=2 2 2 2 2 2 2 2 2 2 2 2 2 2 2 2 2 2 2 2 2 2 2 2 2 2 2 2 2 2
left_child=1 4 7 8 5 6 9 14 16 23 -4 -7 13 -6 20 -15 21 25 19 -14 22 24 -3 -1 26 -13 27 28 -2 -20
right_child=3 2 10 -5 12 11 -8 -9 -10 -11 -12 17 18 15 -16 -17 -18 -19 29 -21 -22 -23 -24 -25 -26 -27 -28 -29 -30 -31
leaf_value=-0.076842460870861509 -0.075051186532865341 -0.075698390848404976 0.049744602422470849 0.067568931671367113 0.023898539119394102 0.051858469215485904 0.07422222532779589 0.032625151394518874 0.012480152098549678 -0.04535242825049185 0.077915326491755893 0.080689479155998306 0.064740187401498242 0.066354437009976258 -0.057846400883475771 0.075920399023371277 -0.069020682570396424 0.07546897861721974 0.076756816620259405 0.07524150859478218 -0.079619130608570621 -0.078365098981781539 -0.0784643919680134 -0.080193745244875256 -0.076670518555185141 0.07717455935141708 -0.077379476109392803 -0.076747550219971719 -0.077111607999272871 0.075133645792512749
leaf_weight=6.8037399202585274 237.42919583618641 30.428884595632553 4.6529667228460339 6.352085828781127 4.8589630126953116 4.6385060399770728 6.3293579369783393 5.2925643920898429 4.8365574479103079 4.5935335308313361 12.614151000976561 4.6759710013866442 4.4657325744628933 4.5021985769271877 4.5500742048025122 23.572931453585625 4.8424412310123435 20.556144639849663 8.3897801190614683 22.27956984937191 5.076302856206893 4.6099408119916907 5.9551565945148459 4.6381781250238419 15.387892961502073 4.7824291884899139 5.7085736542940131 10.866608932614325 5.8904123157262793 221.42799942195415
leaf_count=30 1068 136 20 27 21 20 27 22 20 20 55 20 20 20 20 105 21 92 37 100 22 20 26 20 68 21 25 48 26 995
internal_value=0.000519725 0.0513257 -0.0299124 -0.0707446 0.0674015 0.0334099 -0.0283176 -0.0636491 -0.0737786 -0.0687911 0.0703242 0.0732484 0.0740963 0.0669376 -0.0747235 0.0743864 -0.0752438 0.076554 0.0750152 0.0734881 -0.0765757 -0.0753515 -0.0761511 -0.078201 -0.075301 0.0789122 -0.07522 -0.0751715 -0.0751011 0.0751929
internal_weight=711.009 415.085 68.5701 295.924 346.515 57.0179 22.3648 51.303 289.572 16.0355 17.2671 34.6531 289.497 32.9341 46.0104 28.0751 284.735 30.0145 256.563 26.7453 41.4603 279.893 36.384 11.4419 275.283 9.4584 259.895 254.186 243.32 229.818
internal_count=3172 1849 301 1323 1548 250 97 226 1296 70 75 153 1298 146 204 125 1276 133 1152 120 184 1255 162 50 1235 41 1167 1142 1094 1032
is_linear=0
shrinkage=0.05


Tree=9
num_leaves=31
num_cat=0
split_feature=7 3 8 8 11 8 9 0 10 8 5 13 9 11 0 6 11 9 9 3 12 13 0 9 10 8 10 9 11 12
split_gain=953.916 201.035 85.6168 46.1621 29.5389 52.3823 32.3746 20.6936 16.6722 1.32038 1.08583 0.993787 0.760679 4.05408 0.758184 0.137201 0.0825054 0.0322419 0.0287302 0.14919 0.0239456 0.0167041 0.0138076 0.0137129 0.0136318 0.0116648 0.00872657 0.00832019 0.0086514 0.00809667
threshold=25.439345289253765 0.21218078791283354 0.20756573105459267 0.25597264450403184 0.19772604379203837 0.17658147953949399 0.44077506073663969 0.61018658501311296 0.56887655539090642 0.21561665784956408 0.002970117638365096 0.28050507243234041 0.22559848616333097 0.3148605138210771 0.35725694779816658 0.86135992903901848 0.41090176953265739 0.41852354134690228 0.37515322254495403 0.04608386679019625 0.3554430288364589 0.38024581149064002 0.66798257216840218 0.37820379182409575 0.24628277009998989 0.20756573105459267 0.47282695572629002 0.48395701919496248 0.2867966536832402 0.47052551372730861
decision_type=2 2 2 2 2 2 2 2 2 2 2 2 2 2 2 2 2 2 2 2 2 2 2 2 2 2 2 2 2 2
left_child=1 4 7 8 5 6 14 11 16 -7 -4 20 13 -6 24 -15 21 -11 19 -14 23 22 25 -3 -1 26 27 28 29 -2
right_child=3 2 10 -5 12 9 -8 -9 -10 17 -12 -13 18 15 -16 -17 -18 -19 -20 -21 -22 -23 -24 -25 -26 -27 -28 -29 -30 -31
leaf_value=-0.074744742589084187 -0.073204812904527169 -0.073895994343559673 0.047443206621733888 0.071054235532689553 0.022818060789621002 0.045996915341938747 0.063927547538751905 0.037269458496781829 0.020282064861186572 0.078202061396829683 0.075946990061961234 -0.049962686457111945 0.063245548298288365 0.064399491409506557 -0.051813830160020627 0.074028408180061123 -0.06688990488051183 0.074030222083421721 0.07334027469779586 0.073811932002512751 -0.078106663824563605 -0.076557747471790893 -0.076231441707511477 -0.076844169734080855 -0.078375761757515469 -0.075911860288697924 -0.075394802838966726 -0.075304489692668355 -0.074808882746795882 -0.075003173753657684
leaf_weight=5.9595514982938784 233.12123464047909 31.86566524207592 4.5823861509561565 5.7685478478670111 4.8352091312408438 4.5819411128759375 6.5921032428741446 4.7671277672052375 4.8292718529701224 5.7470601201057461 12.335045546293257 4.5116759389638892 4.3902977406978634 4.4092908948659923 4.5083724856376639 22.981601357460022 4.7492302209138861 23.855511859059334 231.61953675746918 13.972225457429884 4.5545636713504782 4.5015584230422965 4.5046817958354941 4.5014141350984564 4.5647449940443039 4.6871348619461051 5.3434017300605765 5.3473048806190482 9.281871944665907 6.4314957410097113
leaf_count=27 1077 146 20 25 21 20 29 20 20 25 55 20 20 20 20 105 21 109 1068 64 20 20 20 20 20 21 24 24 42 29
internal_value=0.000505878 0.0499895 -0.0290523 -0.0689672 0.0656843 0.0324467 -0.0284576 -0.0618349 -0.0718234 0.0709741 0.0682262 -0.0722335 0.0722573 0.0650273 -0.0689702 0.0724784 -0.0734236 0.0748401 0.0731893 0.0712856 -0.0746889 -0.0735371 -0.0734865 -0.0742609 -0.0763196 -0.0734397 -0.0733951 -0.0733531 -0.0733111 -0.0732531
internal_weight=693.701 405.135 67.1179 288.566 338.017 55.8093 21.6248 50.2004 282.797 34.1845 16.9174 45.4333 282.208 32.2261 15.0327 27.3909 277.968 29.6026 249.982 18.3625 40.9216 273.219 268.717 36.3671 10.5243 264.212 259.525 254.182 248.835 239.553
internal_count=3172 1849 301 1323 1548 250 96 226 1298 154 75 206 1298 146 67 125 1278 134 1152 84 186 1257 1237 166 47 1217 1196 1172 1148 1106
is_linear=0
shrinkage=0.05


Tree=10
num_leaves=31
num_cat=0
split_feature=7 3 8 10 8 13 0 8 6 8 12 12 0 0 13 7 8 10 3 4 12 13 7 0 10 8 10 6 4 8
split_gain=873.402 218.813 83.9599 30.1112 51.3397 23.7535 22.3466 19.0907 3.32563 1.74744 1.37651 1.29438 5.8136 1.10036 0.416814 0.237623 1.17523 0.158115 0.115121 0.060194 0.021198 0.0144504 0.0131576 0.0113374 0.0102209 0.00811792 0.0130925 0.0148969 0.00635119 0.0053193
threshold=27.085951167461428 0.21316536439235984 0.20756573105459267 0.30398153810155065 0.16413702666635308 0.32617908545104468 0.6186743399405189 0.22456085423348285 3.9745155687501921 0.29727486312249712 0.49560959696524115 0.16991209971362009 0.39255846967393726 0.42887956787030224 0.28515699010146822 -1.0000000180025095e-35 0.11473836569361548 0.51253499921404677 0.040392091031044193 0.13361601262166986 0.35750040611613587 0.38432192935669174 25.007507222678107 0.66356236900203769 0.36809754238499964 0.24428057454159149 0.52579348111115154 4.2965395195732219 0.31183954627225746 0.27734715776614571
decision_type=2 2 2 2 2 2 2 2 2 2 2 2 2 2 2 2 2 2 2 2 2 2 2 2 2 2 2 2 2 2
left_child=1 3 6 4 5 8 14 10 19 -4 17 12 -5 -6 20 16 -13 21 -14 -1 24 23 25 28 -3 26 27 -17 -2 -20
right_child=7 2 9 11 13 -7 -8 -9 -10 -11 -12 15 18 -15 -16 22 -18 -19 29 -21 -22 -23 -24 -25 -26 -27 -28 -29 -30 -31
leaf_value=-0.074032035243477443 -0.071704487749313858 -0.07226123664851479 0.038238501232234864 0.017957974174443472 0.049208298247808188 0.05812622032311511 0.041545288384759529 0.028837377094851502 -0.02652794741747206 0.074515425769142385 -0.045914383680200038 0.044517207007258287 0.063653968312150144 0.072501669221022344 -0.056826366906143379 0.075534030729683399 0.071773894095289545 -0.081198131096126183 0.073449056711769392 -0.08151818023994381 -0.07614929492370949 -0.074616103760525507 0.074739837118035862 -0.074192644719259307 -0.074811142169589617 0.071753154198732752 0.071987489085618014 0.072577335633396786 -0.073316457499266866 0.071899001789323819
leaf_weight=6.6905328482389468 241.49101614952087 37.832168057560921 4.5140823423862484 6.3591580986976615 6.2240668684244147 5.529057338833808 4.7822502851486197 4.8260235637426367 4.6005500257015219 12.544751927256582 5.1540928781032553 4.7659850567579296 4.2986357659101513 27.343469426035881 4.4312086701393119 6.192578092217448 23.233809694647789 4.5970206260681143 9.9428215771913546 4.4853817075490952 4.4637907147407523 4.612370863556861 4.391923412680625 4.8242316097021094 4.3854228258132926 139.54707916080952 51.280645608901978 13.651583597064016 6.2691921889781943 12.484313696622847
leaf_count=31 1145 178 20 29 29 25 20 21 21 57 23 22 20 128 20 28 110 20 46 20 20 21 20 22 20 661 242 64 29 59
internal_value=-0.000417457 0.0462067 -0.0321784 0.0634819 0.0296522 -0.0310536 -0.0618111 -0.0697214 -0.0623078 0.0649159 -0.0715032 0.0702042 0.0609257 0.0681826 -0.0714814 0.0714671 0.0671344 -0.0720069 0.0711495 -0.0770366 -0.0728726 -0.0718427 0.0720312 -0.071792 -0.0725261 0.0719747 0.0724095 0.0735 -0.0717453 0.0725862
internal_weight=675.749 403.975 72.9537 331.022 54.8731 21.3055 55.8948 271.774 15.7765 17.0588 266.948 276.149 33.0849 33.5675 51.1126 243.064 27.9998 261.794 26.7258 11.1759 46.6814 257.197 215.064 252.584 42.2176 210.672 71.1248 19.8442 247.76 22.4271
internal_count=3171 1890 335 1555 254 97 258 1281 72 77 1260 1301 154 157 238 1147 132 1237 125 51 218 1217 1015 1196 198 995 334 92 1174 105
is_linear=0
shrinkage=0.05


Tree=11
num_leaves=31
num_cat=0
split_feature=7 11 10 9 9 13 4 13 10 10 13 13 11 11 0 1 9 6 10 11 11 0 11 10 9 9 9 12 12 0
split_gain=811.58 202.788 123.575 29.5972 12.608 10.5315 9.64211 6.87396 23.9739 10.557 6.86055 2.98395 2.85296 0.395298 0.356289 0.308535 0.0995541 0.0800308 0.15822 0.0675896 0.0230882 0.0184532 0.0148173 0.0133579 0.0131235 0.0115027 0.0108588 0.0122351 0.00994328 0.00975685
threshold=27.085951167461428 0.21672810123009115 0.40727514248044322 0.55186400794896506 0.53448428887231192 0.20451541118650032 0.26918065969960042 0.18184794178628147 0.24149994240779535 -1.0000000180025095e-35 0.32617908545104468 0.40030788548307789 0.30594980995634774 0.23754903415535958 0.33263533524845151 0.53047283720392069 0.39120526034954844 6.2706024253884047 0.51253499921404677 0.25751159155382181 0.36110971943755305 0.46491230473984801 0.2867966536832402 0.34356059614665019 0.2665491447733836 0.42326291652366338 0.52545676248882445 0.52531974452705676 0.48930804631227037 0.66798257216840218
decision_type=2 2 2 2 2 2 2 2 2 2 2 2 2 2 2 2 2 2 2 2 2 2 2 2 2 2 2 2 2 2
left_child=1 2 3 10 11 6 -4 8 9 -3 15 17 -10 -9 -7 16 21 18 20 -15 28 24 -21 26 -1 -16 27 -24 29 -2
right_child=4 7 5 -5 -6 14 -8 13 12 -11 -12 -13 -14 19 25 -17 -18 -19 -20 22 -22 -23 23 -25 -26 -27 -28 -29 -30 -31
leaf_value=-0.070699970569839232 -0.07016441108318501 0.029521826023274494 -0.037490759124392224 0.065226058489692734 0.01493293764449624 0.056369049773005088 0.064315775831730274 0.055818599682057428 0.027718821748643853 -0.078991612732821015 -0.0080489284832984433 -0.032519536525823033 0.070948240379341151 0.064652419074820958 0.074205925164784595 -0.058211399753766616 -0.079038895720523514 -0.063532595053593502 -0.079775531528574473 0.072869808916606882 -0.073068015393103439 -0.073988571669530379 0.074593637450040148 0.070332412399729219 -0.073016310114237412 0.071445174024327582 0.070782023491694115 0.071278656085242295 -0.072531385196344597 -0.072574881449113088
leaf_weight=32.425569877028465 229.19947594404221 4.5195687115192413 5.093085825443266 4.6027256250381461 4.48477979004383 4.2871249765157726 4.2803370505571365 4.7119607031345359 4.2801149487495413 4.446526885032652 4.6625993996858588 5.3082070201635352 35.243050768971443 4.9310618340969077 4.5933492183685329 4.2330384105443946 4.8930131793022147 4.1769029051065436 4.5252519845962516 6.7884922623634329 7.5214840918779364 6.6109877675771704 4.7672727406024915 188.97712007164955 7.5359714925289145 21.125581368803978 23.603657871484756 6.6888645440340042 4.6999444961547843 4.2763624489307395
leaf_count=157 1120 21 23 21 20 20 20 22 20 20 21 24 170 23 21 20 22 20 20 32 35 31 22 921 36 101 114 32 22 20
internal_value=-0.00040849 0.0451204 -0.0146262 -0.0569906 -0.068187 0.0552619 0.0089988 0.0666951 0.0495215 -0.0242929 -0.06631 -0.0696224 0.0662668 0.0701581 0.0697138 -0.0711871 -0.0722544 -0.0703966 -0.0705112 0.0704447 -0.0703405 -0.0715416 0.0705684 0.0704987 -0.0711368 0.0719382 0.0713951 0.0726581 -0.0702544 -0.0702086
internal_weight=657.493 393.301 104.343 64.9639 264.192 39.3795 9.37342 288.958 48.4893 8.9661 60.3612 259.708 39.5232 240.468 30.0061 55.6986 51.4655 254.399 250.223 235.756 245.697 46.5725 230.825 224.037 39.9615 25.7189 35.0598 11.4561 238.176 233.476
internal_count=3171 1890 493 308 1281 185 43 1397 231 41 287 1261 190 1166 142 266 246 1237 1217 1144 1197 224 1121 1089 193 122 168 54 1162 1140
is_linear=0
shrinkage=0.05


Tree=12
num_leaves=31
num_cat=0
split_feature=11 8 9 10 9 2 12 10 4 8 4 1 12 9 9 0 10 6 5 0 8 9 12 10 8 10 9 9 10 8
split_gain=706.42 237.791 75.1367 28.9331 50.6368 24.416 23.8497 9.05203 5.92702 2.15418 1.1675 0.642042 0.45396 2.68623 0.268498 0.211473 0.0989171 0.16481 0.0906318 0.0584313 0.287537 0.0294489 0.0221975 0.0209145 0.0178599 0.016653 0.0146514 0.010613 0.0105709 0.00957544
threshold=0.28908846609892552 0.23777204174589564 0.53041701029216115 0.33605544000285165 0.41335923655683054 0.026906900806566301 0.38367524797077351 0.37054517972052087 0.33896610148725037 0.26888807725978398 0.24681543854663879 0.62315454254837455 0.18852366014983643 0.36101885547151419 0.50084496988073812 0.67137234395587997 0.40727514248044322 4.1317893579047782 0.0022532970950895105 0.2569209444283172 0.11473836569361548 0.45443666848133207 0.4977104182474949 0.15636893795565582 0.20756573105459267 0.47691234264658366 0.43300239937340707 0.23946362053833328 0.50962178104936795 0.18021007332049357
decision_type=2 2 2 2 2 2 2 2 2 2 2 2 2 2 2 2 2 2 2 2 2 2 2 2 2 2 2 2 2 2
left_child=1 2 5 4 6 8 10 -4 11 -3 23 15 13 -5 -6 16 21 18 -18 20 -14 22 24 -2 -1 -20 -11 28 -21 -29
right_child=3 9 7 12 14 -7 -8 -9 -10 26 -12 -13 19 -15 -16 -17 17 -19 25 27 -22 -23 -24 -25 -26 -27 -28 29 -30 -31
leaf_value=-0.06897500062566092 -0.070547580119457137 0.033059595644741924 -0.011499847620409781 0.026102719727563114 0.056455335580184555 0.037860642686820392 0.046372838737156724 0.072325336051064323 -0.009764469927502073 0.072204619851025734 -0.041393825468672985 -0.05449510111092918 0.054276463464028639 0.069016351402101203 0.06990364053379132 -0.058531211554000408 -0.081495303323571369 -0.064224552533574938 -0.070537481469924182 0.072094354565925153 0.06923411654125089 -0.072504449987622802 -0.072580995773373402 -0.074887482366034847 -0.072285527752544709 -0.07474859037901764 0.069794081831941801 0.069771560302992544 0.06955498475873427 0.068821838819011924
leaf_weight=251.45285359025002 6.782833859324457 4.3319211006164542 4.5966069400310507 4.3739338368177441 4.2892541289329555 5.5447729527950278 7.1044867038726798 10.758555531501768 4.3033069968223563 8.042669549584387 4.1550144106149665 7.5715065002441397 3.9731504321098354 21.93054336309433 27.552279055118561 4.5340386033058158 4.4406362175941494 4.1278048157691947 4.2969931960105878 5.5991346687078503 16.79301081597805 6.4711318761110297 4.4745403081178656 4.6993909627199173 4.1411356925964347 5.1751429736614227 29.153003424406052 34.1802087277174 15.289125546813009 118.73911386728287
leaf_count=1264 33 20 21 21 21 26 34 51 20 38 20 37 20 110 136 21 20 20 21 27 84 31 21 22 20 24 144 170 76 598
internal_value=-0.000399781 -0.0461739 -0.0607011 0.0599901 0.0273927 -0.0661078 -0.0295921 0.0472321 -0.0680231 0.066429 -0.0641053 -0.0688681 0.0680456 0.0618806 0.0680921 -0.0692445 -0.0694152 -0.0729983 -0.0756014 0.068879 0.0663723 -0.0691727 -0.0690898 -0.0723238 -0.0690286 -0.0728382 0.0703153 0.0691785 0.0702357 0.0690341
internal_weight=638.878 363.417 321.889 275.461 54.5833 306.534 22.7417 15.3552 300.989 41.5276 15.6372 296.686 220.878 26.3045 31.8415 289.114 284.58 18.0406 13.9128 194.574 20.7662 266.54 260.069 11.4822 255.594 9.47214 37.1957 173.808 20.8883 152.919
internal_count=3171 1799 1597 1372 266 1525 109 72 1499 202 75 1479 1106 131 157 1442 1421 85 65 975 104 1336 1305 55 1284 45 182 871 103 768
is_linear=0
shrinkage=0.05


Tree=13
num_leaves=31
num_cat=0
split_feature=7 3 9 10 9 6 10 12 12 0 0 9 10 0 1 5 9 4 3 4 2 0 9 4 10 12 12 4 7 2
split_gain=706.367 178.754 68.1172 24.8606 38.9153 24.4235 11.377 9.40278 6.20504 3.49818 2.07399 1.66831 5.96361 7.42229 1.18905 0.411493 0.0830732 0.343026 0.0771413 0.0407843 0.019674 0.0264741 0.011725 0.0100509 0.00961389 0.00847975 0.00775962 0.00718143 0.00684769 0.00631553
threshold=27.085951167461428 0.21316536439235984 0.43714620936264365 0.30398153810155065 0.42326291652366338 5.1714041714413215 0.56394396663279156 0.38367524797077351 0.39947803590592562 0.68561966826391807 0.36098263848905005 0.16021884369207853 0.50962178104936795 0.67811909545871674 0.26174084828923877 0.011941953964431561 0.34879327552722855 0.25635378106446088 -1.0000000180025095e-35 0.16667959492813314 0.014000986962192952 0.46491230473984801 0.48943003306587757 0.24016087673535616 0.34966525333948956 0.38367524797077351 0.47052551372730861 0.31183954627225746 24.633518791244036 0.013029663783025771
decision_type=2 2 2 2 2 2 2 2 2 2 2 2 2 2 2 2 2 2 2 2 2 2 2 2 2 2 2 2 2 2
left_child=1 3 7 4 5 10 9 15 -4 22 19 12 13 -5 -6 20 17 -13 -16 -1 21 23 26 -3 -18 -14 27 -2 -26 -10
right_child=6 2 8 11 14 -7 -8 -9 29 -11 -12 16 25 -15 18 -17 24 -19 -20 -21 -22 -23 -24 -25 28 -27 -28 -29 -30 -31
leaf_value=-0.069713089576253551 -0.067702215259908549 -0.068003636377897733 0.002443435322800282 -0.024451352887778954 0.038471292820720891 0.059570865149695229 0.011975502506321612 0.00074067258854949706 0.070062712187701201 -0.022232519238536003 -0.030555294947090236 0.051582466637770497 0.070893842136609361 0.069318542837821115 0.061558942936381617 -0.052274251079623538 0.069885873761191486 0.069085845163997947 0.068849914931536388 -0.07609940379580156 -0.07255439984668946 -0.07217143761546517 -0.070371942660474973 -0.070684954606073422 0.067707828044701351 0.068496699817186923 -0.069458660760516266 -0.069543540248920732 0.06979129824837714 0.072278968519389294
leaf_weight=6.1915046125650424 223.21178266406059 26.980215296149257 4.3344469219446209 4.5044384598732012 4.0276613384485271 5.9970723092555991 4.6416184753179541 5.6431560665369025 5.4855270087718946 4.2787246704101554 4.1725898534059516 4.0408982783555976 4.735665529966357 3.9705344289541245 4.3462596684694352 3.899582400918006 5.4018548280000678 9.1088380813598615 21.949971511960026 4.1929552853107452 4.1235957145690909 5.3115594089031211 4.4999914914369574 4.0151331424713126 200.37316259741783 16.695629790425301 6.8097598552703849 5.423970788717269 4.0229334682226172 7.7642712444067001
leaf_count=31 1158 139 20 21 20 30 20 26 27 20 20 20 23 20 22 20 27 46 111 20 20 26 22 20 1039 85 34 27 20 37
internal_value=-0.000391723 0.0432962 -0.0302652 0.0596581 0.0277684 -0.0253455 -0.0655709 -0.0600473 0.0543734 -0.0670447 -0.0603285 0.0660747 0.0549857 0.0194799 0.06377 -0.0677855 0.0675622 0.0637071 0.0676449 -0.0722917 -0.0692816 -0.0689099 -0.0678438 -0.068351 0.0678039 0.0690264 -0.0677954 -0.0677459 0.0677488 0.0713614
internal_weight=620.155 371.289 67.5575 303.732 50.878 20.5541 248.866 49.9732 17.5842 244.224 14.557 252.854 29.9063 8.47497 30.3239 44.3301 222.948 13.1497 26.2962 10.3845 40.4305 36.3069 239.946 30.9953 209.798 21.4313 235.446 228.636 204.396 13.2498
internal_count=3171 1890 335 1555 254 101 1281 251 84 1261 71 1301 149 41 153 225 1152 66 133 51 205 185 1241 159 1086 108 1219 1185 1059 64
is_linear=0
shrinkage=0.05


Tree=14
num_leaves=31
num_cat=0
split_feature=7 3 13 11 8 9 9 8 4 9 4 11 8 9 8 0 8 8 0 11 11 13 8 9 3 0 4 2 8 11
split_gain=658.886 166.842 65.711 28.4063 40.1176 23.8373 20.0389 16.8276 4.06054 1.65167 1.02756 1.02221 0.649018 2.93443 5.58782 0.339244 0.0730028 0.0374755 0.0305306 0.0244788 0.0184978 0.0158982 0.0154849 0.0110599 0.0104877 0.00992046 0.0096904 0.00696186 0.00596268 0.00525672
threshold=27.085951167461428 0.21316536439235984 0.36255059387319871 0.19772604379203837 0.17658147953949399 0.48943003306587757 0.50084496988073812 0.22456085423348285 0.21185400314795447 0.50084496988073812 0.24016087673535616 0.27877017049074887 0.14276981969290239 0.37515322254495403 0.021213831989578356 0.33263533524845151 0.16413702666635308 0.30703404809698565 0.50889435335923616 0.045494691455170704 0.29282017274004862 0.38432192935669174 0.24428057454159149 0.30723682530413537 0.23219401664199166 0.66356236900203769 0.31438308392755199 0.0090209337461757012 0.20756573105459267 0.24320150584318923
decision_type=2 2 2 2 2 2 2 2 2 2 2 2 2 2 2 2 2 2 2 2 2 2 2 2 2 2 2 2 2 2
left_child=1 3 6 4 5 8 11 9 19 20 -4 16 13 14 -5 -6 18 -12 27 -1 21 25 -17 28 -22 26 -2 -3 -14 -25
right_child=7 2 10 12 15 -7 -8 -9 -10 -11 17 -13 23 -15 -16 22 -18 -19 -20 -21 24 -23 -24 29 -26 -27 -28 -29 -30 -31
leaf_value=-0.073269726187393691 -0.066519716529445397 -0.066784078240704384 0.042611213383270313 0.068648192312666098 0.052947678992739812 0.062521295596601675 0.04707250636531482 0.02973866517509649 -0.013171988764510307 -0.034953086429864243 0.075192246346039091 -0.042896116593891809 0.069267317945550563 0.066857144397958923 -0.0056461210445235936 0.070564392018633529 -0.07433059530855067 0.069130153607449341 -0.071675606718593604 -0.068739831261683343 -0.070356653001104164 -0.069787488484316998 0.067211953863677884 0.06786143347562755 -0.067498597919015885 -0.069085970918909875 -0.069030818983699366 -0.068734673202975202 0.067272213113209453 0.066458384386012301
leaf_weight=4.9730646014213615 206.58650435507298 28.329165264964104 4.2938990443944922 5.8640890270471555 4.6145891696214703 5.667416885495185 4.282350316643714 4.6582811027765265 4.1007799804210654 4.148288592696189 4.3532796800136548 4.3651289492845526 4.5438582897186306 35.716214567422867 4.4525489956140518 4.2904397547245052 4.4974740594625464 6.1525831520557404 4.0847584754228583 7.4500579535961151 5.1161855161190024 4.0183841884136191 17.470236346125603 6.9538651108741751 8.6142229437828046 3.9807082861661902 3.914764702320098 5.4552393853664389 21.300863891839981 167.00087735056877
leaf_count=24 1110 151 21 30 23 28 21 21 20 20 20 21 23 190 21 21 22 31 20 38 25 20 92 36 45 20 20 28 112 897
internal_value=-0.000384224 0.0424322 -0.0295381 0.0585214 0.0235784 -0.0259638 -0.056448 -0.0643702 -0.0563127 -0.0662248 0.0632193 -0.0659343 0.0654247 0.0600724 0.0365836 0.0652616 -0.068308 0.0716421 -0.0675927 -0.0705532 -0.0667834 -0.0666716 0.0678729 0.0666579 -0.0685636 -0.0666132 -0.0665664 -0.067099 0.067623 0.0665145
internal_weight=601.25 360.213 65.8139 294.399 48.5666 22.1913 51.0141 241.037 16.5239 236.379 14.7998 46.7318 245.832 46.0329 10.3166 26.3753 42.3666 10.5059 37.8692 12.4231 232.231 218.5 21.7607 199.799 13.7304 214.482 210.501 33.7844 25.8447 173.955
internal_count=3171 1890 335 1555 246 110 263 1281 82 1260 72 242 1309 241 51 136 221 51 199 62 1240 1170 113 1068 70 1150 1130 179 135 933
is_linear=0
shrinkage=0.05


Tree=15
num_leaves=31
num_cat=0
split_feature=7 3 8 9 12 8 0 0 10 9 10 8 9 5 3 1 3 12 9 9 0 0 13 12 9 10 2 12 13 3
split_gain=620.575 149.829 70.5282 22.4875 40.2541 21.8489 17.3375 14.5591 2.18617 9.1729 1.21287 1.19328 0.945973 0.384848 0.128115 0.109548 0.0507445 0.0351288 0.0148621 0.01436 0.00914059 0.00826656 0.00827828 0.00637267 0.00618237 0.0056711 0.0056479 0.00477944 0.00420488 0.00346271
threshold=27.085951167461428 0.21316536439235984 0.20756573105459267 0.26877888556310553 0.34862291629211867 0.23165080383161604 0.50299227766973342 0.57494699478198374 0.33051724520746023 0.41852354134690228 0.51253499921404677 0.14743155724710116 0.085294532611943877 0.0052619649777686595 0.25667992291610436 0.5157213920202609 0.19923917319679382 0.36094457449988365 0.48943003306587757 0.35577381929228952 0.79215947031174949 0.65650665441508693 0.3754815554057524 0.4684690348547525 0.39120526034954844 0.53297039014319847 0.010770727344674639 0.38367524797077351 0.24746577238753678 0.11315669754531858
decision_type=2 2 2 2 2 2 2 2 2 2 2 2 2 2 2 2 2 2 2 2 2 2 2 2 2 2 2 2 2 2
left_child=1 3 7 4 6 10 13 15 9 -5 18 -11 25 -1 20 17 24 19 21 26 -4 22 23 -2 27 29 -3 -10 -13 -6
right_child=5 2 14 8 12 -7 -8 -9 16 11 -12 28 -14 -15 -16 -17 -18 -19 -20 -21 -22 -23 -24 -25 -26 -27 -28 -29 -30 -31
leaf_value=-0.075689211743609389 -0.065421628221423972 -0.065743097418808322 0.06966919362589595 -0.011563138906810336 0.06669366211858789 0.048893384825578833 0.034794278804534798 0.025379493444895825 0.067887051137774559 0.040093704228298388 -0.038302441896040706 0.067640344226639601 0.041688318908043177 -0.056459124188573739 0.057991687634498537 -0.058090650626395492 0.06110187163363269 -0.070781456404495041 -0.068457710286404294 -0.069101038473511775 0.066817189890326589 -0.067793145594769191 -0.067760632560818157 -0.067047758228509585 0.065466671860328965 0.066116075558953477 -0.067807967975127365 0.065962885586398914 0.065920750530002445 0.06877391271456304
leaf_weight=7.7757175117731112 204.76090118288994 26.308718219399456 6.6227403283119184 4.8920516669750205 3.9159397333860451 4.2813306450843802 6.0900717973709098 4.8228961527347556 4.405990436673167 5.2335859835147849 4.140665888786315 4.2169273644685772 4.5179050415754309 3.9100647270679474 3.9190481901168814 3.8078152686357489 6.6245553791522971 5.2440801858901969 4.4985680580139151 4.2712810784578314 4.8791810125112534 4.0473426431417456 4.0175679773092261 6.2075691521167746 184.84609048068523 15.419194445013998 3.7885067611932746 12.06304010748863 22.648529216647148 4.0895686894655228
leaf_count=38 1138 145 33 25 21 19 31 22 23 26 19 22 24 20 20 20 36 26 23 22 26 21 21 33 1026 84 20 66 124 21
internal_value=0.000566974 0.0421893 -0.027283 0.0574066 0.0252158 -0.0630118 -0.0336072 -0.0570367 0.0634153 0.0522155 -0.0651162 0.0619357 0.0626364 -0.0692548 0.0657991 -0.066191 0.0654077 -0.0669697 -0.0656129 -0.066388 0.0684594 -0.0655544 -0.0655123 -0.0654695 0.0655494 0.0666766 -0.066003 0.0664777 0.0661907 0.0677563
internal_weight=586.267 354.313 63.6643 290.649 45.7185 231.954 17.7759 48.2433 244.931 36.9911 227.673 32.099 27.9426 11.6858 15.421 43.4204 207.94 39.6126 223.532 34.3685 11.5019 219.033 214.986 210.968 201.315 23.4247 30.0972 16.469 26.8655 8.00551
internal_count=3195 1921 334 1587 239 1274 89 255 1348 197 1255 172 150 58 79 233 1151 213 1236 187 59 1213 1192 1171 1115 126 165 89 146 42
is_linear=0
shrinkage=0.05


Tree=16
num_leaves=31
num_cat=0
split_feature=7 11 9 10 12 1 4 11 13 11 13 13 13 10 1 10 10 11 10 4 9 11 10 7 10 13 9 12 5 10
split_gain=580.179 153.724 89.2041 22.1446 14.9219 7.91594 4.34994 3.69211 3.55877 3.32066 10.4119 1.03145 0.794243 4.33537 0.107814 0.0899455 0.0712732 0.0200151 0.0144871 0.0121323 0.0120842 0.011927 0.0110086 0.0109071 0.0211456 0.0108706 0.00929449 0.0134493 0.00521752 0.00450962
threshold=27.085951167461428 0.22281154621296842 0.41852354134690228 0.50962178104936795 0.54158303499118099 0.28149832751145754 0.28161329519638961 0.033825331087390477 0.40030788548307789 0.29282017274004862 0.26144228897082827 0.18184794178628147 0.13344483210483224 0.35432029508285995 0.65468600609101679 0.48596209087997416 0.3736498095583935 0.26466739708645443 0.27429631422089773 0.215559174463719 0.48943003306587757 0.064007374020031718 0.44633802145649698 5.2169266812388999 0.57909887529919024 0.26144228897082827 0.35293914272836319 0.29113417247495826 2.6878259066232441e-05 0.30398153810155065
decision_type=2 2 2 2 2 2 2 2 2 2 2 2 2 2 2 2 2 2 2 2 2 2 2 2 2 2 2 2 2 2
left_child=1 2 3 6 8 -4 16 -5 14 10 -3 -7 13 -11 15 17 18 20 25 -19 -2 -20 -13 -12 -25 28 27 -14 -1 -28
right_child=4 9 5 7 -6 11 -8 -9 -10 12 23 22 26 -15 -16 -17 -18 19 21 -21 -22 -23 -24 24 -26 -27 29 -29 -30 -31
leaf_value=-0.067027427602218276 -0.06444019783489878 -0.012417259822196769 -0.0052880078636661576 0.062245775469796739 0.031267721136752524 0.04058632895761588 -0.015038798097632741 -0.0061724165076716825 -0.016203289444109658 0.015811871546505287 0.065248245983775183 0.067587086733606347 0.06827124093338148 0.064996903362142991 -0.056248173523552707 -0.072212842799081203 -0.073001626846607978 -0.065439185492597349 -0.069875573850065043 -0.068392299074587035 -0.067166146301004509 -0.06595585279724793 0.065121287745890849 0.065774392022343836 0.070882924244209722 -0.068090728722950786 0.065258411519581214 0.065130450260475106 -0.065028399344143076 0.064483731812761277
leaf_weight=3.6970584392547634 187.24191328883171 6.0322176069021252 5.2464319467544547 3.9220276027917853 4.2075421810150138 4.9078341126441982 4.4822029322385779 3.9655677974224091 3.860093727707862 5.4824874550104168 4.8214644044637671 6.0540637671947506 3.887000888586047 24.507553488016129 3.7615923136472693 4.0017250627279273 3.9642749577760688 12.01635402441025 3.9541142731904975 4.8945956975221625 4.1558293402194968 3.8113570660352707 17.938712790608406 4.1780457794666273 3.9320684671401978 3.8072455823421469 21.530852749943733 27.687900274991989 27.873722195625305 147.36297617852688
leaf_count=20 1079 31 26 20 20 26 23 20 19 28 27 32 20 139 21 20 20 67 21 26 22 21 101 23 20 20 121 156 158 848
internal_value=0.000556751 0.041433 -0.0131978 -0.0501778 -0.0620045 0.0512143 -0.0621072 0.0278478 -0.0637889 0.0619394 0.0418278 0.0614714 0.0635944 0.0560054 -0.064639 -0.0647877 -0.0665857 -0.0646451 -0.0659961 -0.0662939 -0.0644994 -0.0679517 0.0657435 0.0671316 0.0682512 -0.0655669 0.0647297 0.0655171 -0.0652625 0.0645825
internal_weight=567.187 343.047 93.6246 59.4776 224.14 34.147 51.59 7.8876 219.932 249.423 18.9638 28.9006 230.459 29.99 216.072 212.31 47.1078 208.309 43.1435 16.9109 191.398 7.76547 23.9928 12.9316 8.11011 35.378 200.469 31.5749 31.5708 168.894
internal_count=3195 1921 508 323 1274 185 283 40 1254 1413 101 159 1312 167 1235 1214 260 1194 240 93 1101 42 133 70 43 198 1145 176 178 969
is_linear=0
shrinkage=0.05


Tree=17
num_leaves=31
num_cat=0
split_feature=7 11 8 8 9 10 4 3 11 12 13 13 12 10 9 8 3 11 8 3 3 13 9 9 8 8 13 10 8 12
split_gain=543.127 121.76 84.2891 54.3874 26.7161 7.03976 4.95538 4.75559 1.19321 4.96902 1.07254 0.435076 0.110374 0.0834674 0.0485079 0.446465 0.0372232 0.0301603 0.0255825 0.0250604 0.0207109 0.027047 0.0146695 0.0137009 0.0118315 0.0103591 0.00956434 0.0087006 0.006438 0.00543419
threshold=23.589396839582271 0.22281154621296842 0.20360401857950799 0.24007822184306904 0.47857858431244782 0.56394396663279156 0.27363309910907258 0.25039750737137584 0.28908846609892552 0.31927916932261141 0.17713835899849453 0.38982747300062914 0.37171799168288483 0.38455482407765329 0.14484971326216631 0.16327073184655047 0.21556578577204646 0.30594980995634774 0.24007822184306904 0.21817116269768866 0.20618989553587097 0.27187145679883756 0.48395701919496248 0.45989492453268804 0.34129159937066994 0.10236700875978745 0.3754815554057524 0.33937068731235531 0.14743155724710116 0.48930804631227037
decision_type=2 2 2 2 2 2 2 2 2 2 2 2 2 2 2 2 2 2 2 2 2 2 2 2 2 2 2 2 2 2
left_child=1 2 4 5 6 17 12 8 9 -3 -4 -5 13 20 15 -10 27 22 -11 -19 25 -22 26 -12 -18 -1 29 28 -16 -2
right_child=3 7 10 11 -6 -7 -8 -9 14 18 23 -13 -14 -15 16 -17 24 19 -20 -21 21 -23 -24 -25 -26 -27 -28 -29 -30 -31
leaf_value=-0.069209643325721992 -0.06355688516702572 0.00048688141016875198 0.040057892075573857 0.047212411238148379 0.042722179556471861 0.0039006835028655034 -0.0072193639681704712 0.016920208111054765 0.045212716623689815 0.069294200992687072 0.06713631211426406 0.069120024291361146 -0.058029441846971647 -0.072875719759506893 0.066141830666494011 0.064452173965981172 0.069017998888968576 -0.06961250022832273 0.064251055170481158 -0.064690818154005514 -0.063818445349592787 -0.068423891904563952 -0.066548805487123122 0.064387697609491062 0.065244763747030948 -0.065634976285611907 -0.066180565641115421 0.063452810035277682 0.064076325154294608 -0.065432904565876721
leaf_weight=3.991503491997717 194.51227535307407 3.9163393378257743 5.2344340085983303 3.8222859352827054 7.320663094520568 3.9035406559705725 4.0536627173423758 5.8608588427305213 3.6178277730941799 3.8561951816081983 6.1969077587127712 5.5670906752347946 4.9085394740104666 3.9518118351697913 4.5739934742450741 18.108049347996712 3.8973950594663602 3.8562628179788572 7.2283562868833542 7.8545203357934952 21.752063870429996 3.7354423999786368 4.4315444678068152 16.893230214715004 4.4492971003055573 4.1172502636909485 3.6398208886384955 157.81309461593628 21.531649634242058 3.9382701367139807
leaf_count=21 1161 20 28 20 39 18 21 31 20 20 33 29 25 20 25 105 20 20 42 45 129 20 24 98 25 23 20 945 126 22
internal_value=0.000547327 0.0430663 -0.00932585 -0.0576703 -0.0460628 -0.0626526 -0.0600375 0.061394 0.0625322 0.0489003 0.0604929 0.0602017 -0.0650804 -0.0660022 0.0634878 0.0612484 0.0637409 -0.0638431 0.0660055 -0.0663115 -0.0651936 -0.0644934 -0.0637031 0.0651254 0.0670066 -0.0673946 -0.0636407 0.0635927 0.0644382 -0.0635941
internal_weight=548.534 317.009 82.1555 231.526 53.8309 222.136 46.5103 234.853 228.992 15.0009 28.3246 9.38938 42.4566 37.5481 213.991 21.7259 192.265 218.233 11.0846 11.7108 33.5963 25.4875 206.522 23.0901 8.34669 8.10875 202.09 183.919 26.1056 198.451
internal_count=3195 1836 457 1359 298 1310 259 1379 1348 82 159 49 238 213 1266 125 1141 1292 62 65 193 149 1227 131 45 44 1203 1096 151 1183
is_linear=0
shrinkage=0.05


Tree=18
num_leaves=31
num_cat=0
split_feature=7 11 8 0 8 13 3 0 12 10 13 1 12 9 10 3 3 10 8 9 7 11 9 10 8 0 8 10 3 11
split_gain=508.865 137.455 89.3135 29.2654 12.9554 8.54565 6.15227 1.95348 7.46723 9.53019 1.08523 0.552204 0.26227 0.0919565 0.0905596 0.0658328 0.0398997 0.0273374 0.0266066 0.0145036 0.0128627 0.00893695 0.00913548 0.0082722 0.00689464 0.00559497 0.0055511 0.00506267 0.00412 0.00409832
threshold=27.460077413843496 0.22281154621296842 0.20756573105459267 0.67137234395587997 0.22928366520965854 0.36706354578434236 0.25039750737137584 0.40409412698012326 0.31125144134684563 0.57155187215326964 0.38432192935669174 0.33195158643247352 0.40269947524361621 0.38760674035648124 0.49024236370010071 0.21316536439235984 0.20618989553587097 0.24149994240779535 0.28443366261574915 0.34032106525380418 24.291699694745198 0.30925786358814306 0.48943003306587757 0.37761848681989307 0.21263008295102712 0.65650665441508693 0.27262164788854965 0.37054517972052087 0.23219401664199166 0.28908846609892552
decision_type=2 2 2 2 2 2 2 2 2 2 2 2 2 2 2 2 2 2 2 2 2 2 2 2 2 2 2 2 2 2
left_child=1 2 3 5 10 12 7 8 9 -3 14 -4 13 16 21 20 17 -1 -17 -13 23 22 25 24 -9 -2 -21 -18 -23 -25
right_child=4 6 11 -5 -6 -7 -8 15 -10 -11 -12 19 -14 -15 -16 18 27 -19 -20 26 -22 28 -24 29 -26 -27 -28 -29 -30 -31
leaf_value=-0.064832692950730741 -0.062659089281786831 -0.046184307980079588 0.043540087885765605 0.052763733785056458 0.030025732096818521 0.014124428026965161 0.010880307328258376 0.06488186265484755 0.063190528483849928 0.06370412090699186 -0.035284948521275297 0.067157135698586529 -0.05162259483445808 -0.071813939188823825 -0.070775887705737991 0.070269571662371647 -0.063012781250954178 -0.070095905579046949 0.065036387619071587 0.065523315206906102 0.065731760684285101 -0.065537025417853709 -0.065094468044184936 0.063824449016229592 0.063167229927261759 -0.064680095181977107 0.063383085082765023 -0.065029092952923848 -0.063468525026002823 0.06265764985629016
leaf_weight=6.7327512204647046 177.80884192883968 4.0336723625659934 3.6946114152669933 6.6331546157598487 3.8566193431615821 3.7831162065267554 6.2343906462192527 8.0561033338308352 25.58294390141964 3.8622414320707321 3.6024116724729529 3.7537564635276821 4.1062899529933921 4.2486978471279135 3.6524025797843924 3.9437056034803373 28.870929017663002 3.8941072523593903 6.3230206221342087 3.7066237628459957 4.0140173137187949 3.9523104131221753 4.0659780800342551 7.9462687969207755 21.53513491153717 3.4917965084314337 16.589301228523254 3.4894526600837699 6.1580080687999725 142.23459731042385
leaf_count=39 1104 20 20 35 18 20 33 46 156 23 19 20 21 22 19 20 177 20 36 21 23 22 23 47 131 20 100 20 37 883
internal_value=0.000538108 0.0397089 -0.0129826 -0.0464598 -0.0607563 -0.0583992 0.0598831 0.0612258 0.0500718 0.00756699 -0.0624832 0.0615372 -0.063743 -0.0647967 -0.0629753 0.0631501 -0.0641031 -0.0667613 0.0670466 0.064302 0.0629324 -0.0628295 -0.0627506 0.0628699 0.063634 -0.062698 0.063774 -0.0632302 -0.0642771 0.0627194
internal_weight=529.857 323.269 89.5028 61.7585 206.588 55.1253 233.766 227.532 33.4789 7.89591 202.732 27.7443 51.3422 47.2359 199.129 194.053 42.9872 10.6269 10.2667 24.0497 183.786 195.477 185.367 179.772 29.5912 181.301 20.2959 32.3604 10.1103 150.181
internal_count=3195 1933 515 354 1262 319 1418 1385 199 43 1244 161 299 278 1225 1186 256 59 56 141 1130 1206 1147 1107 177 1124 121 197 59 930
is_linear=0
shrinkage=0.05


Tree=19
num_leaves=31
num_cat=0
split_feature=10 8 13 9 12 0 4 8 13 0 0 12 9 10 5 13 0 10 9 9 10 4 10 12 8 6 8 0 10 12
split_gain=452.831 158.447 33.3654 26.1175 37.7651 11.2779 10.4522 6.25574 7.94181 6.21905 2.83427 2.10808 1.04952 1.87966 0.543218 0.541889 0.236957 1.26466 0.0954583 0.0545779 0.0410946 0.019998 0.0231942 0.0146238 0.0143604 0.0142366 0.0126734 0.0123893 0.0113891 0.0113116
threshold=0.39902190816820177 0.21263008295102712 0.40794972268174007 0.28745708666398923 0.33775856129706722 0.76837049999296558 0.29779312293784527 0.26888807725978398 0.43638351824111216 0.38528760782349963 0.42457115159699549 0.50893058257413881 0.34879327552722855 0.61650981280358497 0.0070715461133643688 0.36706354578434236 0.40166500974314873 0.48133452262177262 0.45443666848133207 0.48943003306587757 0.47282695572629002 0.23597721366045085 0.29840695656437116 0.20816069250175359 0.1818960780154549 1.60162392313619 0.16327073184655047 0.64054556400433815 0.53297039014319847 0.42967503153691805
decision_type=2 2 2 2 2 2 2 2 2 2 2 2 2 2 2 2 2 2 2 2 2 2 2 2 2 2 2 2 2 2
left_child=1 2 5 4 6 11 14 8 -3 -4 -6 15 13 -5 20 18 17 -14 21 -19 -2 27 -23 -20 25 -18 -12 29 -28 -1
right_child=3 7 9 12 10 -7 -8 -9 -10 -11 26 -13 16 -15 -16 -17 24 19 23 -21 -22 22 -24 -25 -26 -27 28 -29 -30 -31
leaf_value=-0.062112165726711965 -0.064832582735304359 -0.038805814383896083 -0.019230981224995003 0.014387744209503256 0.022846623479230495 0.02920777618508626 0.034882405735015214 0.063061810040601435 0.062350440195852189 0.064076688364266388 0.066726203136140749 -0.026685552683794935 0.028517048396668382 0.06315500801649726 -0.044741949984331196 -0.042253274976427418 0.065448416502855433 0.055878021129734612 -0.06603210944038794 0.062727523977148855 -0.071342384807845979 -0.063018231729863636 -0.066865381374158012 -0.070314275109961147 0.062195659124564678 0.062853901850163138 0.065674543878764619 -0.065269369053612178 0.062658441438399867 -0.064739745839550528
leaf_weight=179.32465052604675 4.8480583429336566 3.8040065616369239 3.4961368888616544 3.3186941444873792 5.2811875045299557 3.4652507752180091 3.5305727720260611 30.492091357707977 3.9604338854551315 6.236310750246048 3.4688801765441921 4.2279803901910773 3.3310325890779522 4.8833314329385757 3.3533012717962256 3.3157130926847449 6.6061605960130683 3.4668096154928234 4.4285157322883588 18.052425339818001 4.8492124229669571 24.292734414339069 4.6711182892322531 3.626411035656929 120.2582945227623 26.484390810132027 4.1620393395423916 3.2867199629545203 12.621930271387098 4.1916700005531302
leaf_count=1149 30 20 20 20 30 19 20 188 25 37 20 24 20 30 20 19 39 22 25 113 26 151 28 20 767 166 24 19 79 25
internal_value=0.000530147 -0.0417648 -0.0565666 0.0528758 0.0173141 -0.0603263 -0.0414413 0.052859 0.0127913 0.0341505 0.0554684 -0.0616673 0.0609106 0.0434229 -0.0620892 -0.0623185 0.0617155 0.0571863 -0.0626157 0.061624 -0.0680879 -0.0624162 -0.0636387 -0.06796 0.0624495 0.0633719 0.063975 -0.0622267 0.0634064 -0.0621722
internal_weight=511.336 282.82 244.563 228.516 42.1152 234.831 16.5811 38.2565 7.76444 9.73245 25.534 231.366 186.401 8.20203 13.0506 227.138 178.199 24.8503 223.822 21.5192 9.69727 215.767 28.9639 8.05493 153.349 33.0906 20.2528 186.803 16.784 183.516
internal_count=3195 1769 1536 1426 249 1479 96 233 45 57 153 1460 1177 50 76 1436 1127 155 1417 135 56 1372 179 45 972 205 123 1193 103 1174
is_linear=0
shrinkage=0.05


Tree=20
num_leaves=31
num_cat=0
split_feature=7 3 8 9 9 1 9 4 13 3 10 9 10 9 13 5 1 8 9 7 8 8 6 13 4 13 8 3 8 9
split_gain=446.286 122.922 52.5568 21.0238 15.0341 24.3647 10.9794 10.5763 5.65343 2.67673 1.65528 8.42822 1.55729 0.843421 0.339839 0.187714 0.0561481 0.0810205 0.0353315 0.0303972 0.0271641 0.0226665 0.0182102 0.0121221 0.00754836 0.00731284 0.0067133 0.00389319 0.00332196 0.00336378
threshold=27.460077413843496 0.20618989553587097 0.26888807725978398 0.55186400794896506 0.27919249844994226 0.40279351241606359 0.035512917057052791 0.34399491370835517 0.34660292750054023 0.17240321185035615 0.33051724520746023 0.41335923655683054 0.54590483901734499 0.50572060444331302 0.24008376910442178 0.0024961106394880083 0.53047283720392069 0.16413702666635308 0.39120526034954844 25.439345289253765 0.19645592063834841 0.20756573105459267 0.70763799865337884 0.38024581149064002 0.22448059571583709 0.3754815554057524 0.32463270296029201 0.21556578577204646 0.2585922061716544 0.39120526034954844
decision_type=2 2 2 2 2 2 2 2 2 2 2 2 2 2 2 2 2 2 2 2 2 2 2 2 2 2 2 2 2 2
left_child=1 4 3 8 5 6 -1 12 16 14 11 -6 21 -13 -7 -8 17 18 22 28 -16 23 -3 -2 -24 26 -15 -4 29 -12
right_child=7 2 27 -5 10 9 15 -9 -10 -11 19 13 -14 25 20 -17 -18 -19 -20 -21 -22 -23 24 -25 -26 -27 -28 -29 -30 -31
leaf_value=0.029173264777202348 -0.061301963397729933 -0.065830310467360112 0.061818564610694349 0.060548469392549709 -0.021373511222538721 0.048832182113341976 -0.07031866467519525 0.032436142519245807 0.0015646675458844132 0.01393262700128562 0.063090607109960825 0.036121026030486995 -0.026515548912017406 0.065078160515831429 0.066657020361773026 -0.055435374223399982 -0.057472365770567982 -0.071830752282952534 -0.068371353789798792 0.065982458920167894 0.062342441584575331 -0.065578859968887709 -0.062136586778025409 -0.064383528702829526 -0.064382239179147191 0.061600598167344901 0.062237102318016414 0.063845164346493607 0.061230402476951468 0.061592822866698482
leaf_weight=5.1984281092882147 178.19327558577061 4.9427169263362911 3.0832715034484854 4.0434434115886679 3.7472788989543941 5.0048065185546937 4.3735641241073591 3.0898208469152442 3.6035834997892371 3.5902764201164237 4.0180676579475394 3.5591704994440105 3.2497336566448203 3.6326040178537387 5.0884688198566463 4.1088929623365402 3.2873762547969809 3.2517189979553214 3.4593134671449652 3.6875419169664374 12.886903196573256 3.2361338436603537 21.777570977807049 3.2495488971471778 4.5184327065944663 14.333726659417151 4.862675353884697 10.240860864520071 109.80595837533474 55.89574009180069
leaf_count=31 1188 30 20 21 21 30 24 15 19 21 25 21 16 21 30 25 20 18 19 21 82 19 141 19 27 94 31 61 734 368
internal_value=0.000648427 0.0380823 -0.0246527 -0.0486463 0.0540902 0.0261689 -0.028044 -0.0593188 -0.0584928 0.0540827 0.0596117 0.0487956 -0.0608274 0.05876 0.0603554 -0.0631092 -0.063741 -0.064284 -0.0635768 0.0614914 0.0635638 -0.0614311 -0.0630458 -0.0613572 -0.0625225 0.0622895 0.0634519 0.0633762 0.0613938 0.0616933
internal_weight=497.021 306.002 62.2083 48.8842 243.794 40.2513 13.6809 191.019 44.8407 26.5705 203.543 30.1355 187.929 26.3882 22.9802 8.48246 41.2371 37.9498 34.698 173.407 17.9754 184.679 31.2387 181.443 26.296 22.829 8.49528 13.3241 169.72 59.9138
internal_count=3212 1955 376 295 1579 243 80 1257 274 163 1336 188 1242 167 142 49 255 235 217 1148 112 1226 198 1207 168 146 52 81 1127 393
is_linear=0
shrinkage=0.05


Tree=21
num_leaves=31
num_cat=0
split_feature=7 3 8 9 9 12 13 11 13 10 10 9 0 9 13 8 11 7 8 9 11 11 13 12 8 11 3 0 10 0
split_gain=418.81 115.329 54.5221 23.5129 12.5831 26.8161 12.8696 9.7065 5.42854 2.00755 1.03833 5.12365 0.805149 0.214987 0.203221 0.0914656 0.0748481 0.0229659 0.0190021 0.0189858 0.0157573 0.0155551 0.0139712 0.0134148 0.0105112 0.00975078 0.00554319 0.00469182 0.00460547 0.00439841
threshold=27.460077413843496 0.20133580736714576 0.26593016190975366 0.55186400794896506 0.26877888556310553 0.34862291629211867 0.3607776984430679 0.43549614995304259 0.34660292750054023 0.59211970841337414 0.33051724520746023 0.48943003306587757 0.31664855828125421 0.14810844797002554 0.26144228897082827 0.17298653461354777 0.27877017049074887 25.439345289253765 0.20756573105459267 0.37820379182409575 0.25751159155382181 0.28235867733219183 0.38432192935669174 0.36419480316115033 0.2585922061716544 0.24044995411920145 0.21556578577204646 0.65650665441508693 0.42014325855444529 0.4177360250716402
decision_type=2 2 2 2 2 2 2 2 2 2 2 2 2 2 2 2 2 2 2 2 2 2 2 2 2 2 2 2 2 2
left_child=1 4 3 8 5 6 12 9 14 18 11 -6 -1 20 15 16 19 21 22 23 -7 24 27 29 -12 -13 -4 -2 -22 -3
right_child=7 2 26 -5 10 13 -8 -9 -10 -11 17 25 -14 -15 -16 -17 -18 -19 -20 -21 28 -23 -24 -25 -26 -27 -28 -29 -30 -31
leaf_value=-0.069950282562520685 -0.060606416442074887 -0.060779202984391434 0.060971115349393347 0.059708360013077257 0.0099080226866567322 0.065019696935973662 0.045269994623433035 0.027023624556790568 0.0014865014081368423 -0.016882177549297852 0.062946196988778916 0.063828590657329834 -0.039452220739608052 0.047958991474843712 -0.050087972444211759 -0.071672443558854215 -0.069040561106872275 0.064888861424172245 -0.064638789534824034 -0.065444448554672671 0.06308679125642494 0.060480734744539681 -0.063981650474283655 -0.0645386283523669 0.061027459472829684 0.061090744515658928 0.062994492372487498 -0.062542601221382596 0.060982013854402453 -0.062529934109968446
leaf_weight=6.3400036096572858 168.51814177632332 20.4609565883875 5.1517582088708869 4.7345943301916114 6.1146168857812908 3.6460718810558381 4.2097992897033683 3.2522260397672644 3.6034236550331107 2.6440815627574912 11.270870059728624 3.9534410983324078 3.2855521589517593 3.1276238560676566 3.0657563209533683 3.1183525174856177 4.1631470173597327 3.3713256716728202 3.1219334304332724 3.3808732479810706 3.2241858541965511 130.45130805671215 3.1905371993780127 3.1735027283430091 19.464408800005913 18.331398621201515 9.8696026206016523 3.1880618780851355 13.402664139866827 4.3503002226352683
leaf_count=36 1170 141 35 26 35 21 24 17 19 12 70 24 20 20 19 17 22 20 19 20 20 911 19 19 132 124 61 20 91 28
internal_value=0.000639202 0.0375311 -0.0212424 -0.0463154 0.0541455 0.0275342 -0.0276487 -0.0585888 -0.0573927 -0.0601299 0.0592809 0.0504519 -0.0595402 0.0601605 -0.062479 -0.063462 -0.0627413 0.0608046 -0.0607723 -0.0619053 0.0620429 0.0607192 -0.0607033 -0.0614777 0.0617311 0.0615765 0.0623006 -0.0606424 0.0613902 -0.0610862
internal_weight=479.181 295.266 65.0723 50.0509 230.193 37.2359 13.8354 183.915 45.3163 180.663 192.957 28.3995 9.62556 23.4005 41.7129 38.6471 35.5288 164.558 178.019 31.3656 20.2729 161.187 174.897 27.9848 30.7353 22.2848 15.0214 171.706 16.6268 24.8113
internal_count=3212 1955 407 311 1548 232 80 1257 285 1240 1316 183 56 152 266 247 230 1133 1228 208 132 1113 1209 188 202 148 96 1190 111 169
is_linear=0
shrinkage=0.05


Tree=22
num_leaves=31
num_cat=0
split_feature=7 10 9 8 4 12 9 8 6 10 7 11 9 8 13 11 11 4 9 9 7 8 11 8 12 11 13 13 6 11
split_gain=393.331 103.474 70.9344 26.9149 10.5378 8.02216 5.89133 12.5384 11.0012 1.77244 1.35647 0.700934 0.621497 0.187736 0.182759 0.968642 0.12123 0.106134 0.0415126 0.0404725 0.0162889 0.0161928 0.0121689 0.0147591 0.011415 0.0110984 0.0108238 0.00830292 0.00748638 0.00463428
threshold=27.460077413843496 0.34966525333948956 0.47857858431244782 0.27734715776614571 0.34779067324705076 0.42967503153691805 0.26877888556310553 0.1549681905504233 3.7860794964979689 0.55831304894854383 19.268058548522472 0.15948088167077779 0.011170818534647794 0.17436948025972898 0.15733454899027025 0.19772604379203837 0.26466739708645443 0.049085159264100515 0.38760674035648124 0.46789268461966121 25.439345289253765 0.20756573105459267 0.28235867733219183 0.23165080383161604 0.39947803590592562 0.24044995411920145 0.27187145679883756 0.38024581149064002 4.4825230699722622 0.38436015748105173
decision_type=2 2 2 2 2 2 2 2 2 2 2 2 2 2 2 2 2 2 2 2 2 2 2 2 2 2 2 2 2 2
left_child=1 2 3 5 9 12 7 8 -3 21 17 -9 -1 16 15 -8 18 -4 26 -17 22 27 23 -16 -13 -19 28 29 -14 -2
right_child=4 6 10 -5 -6 -7 14 11 -10 -11 -12 24 13 -15 20 19 -18 25 -20 -21 -22 -23 -24 -25 -26 -27 -28 -29 -30 -31
leaf_value=-0.044587259936788658 -0.059981614536293706 -0.066662146265820357 0.05113726818600324 0.062596778305355469 0.036730521711445079 0.0083569938132689574 0.030386739727710024 0.037140742026414229 0.040210130904969284 -0.020753442740520975 0.024773198553516427 0.063814321274614741 -0.060392138273634932 -0.07590562427312661 0.062834427783841532 0.054080706107467208 -0.070971663151468786 0.063734287926177163 -0.067308439396971106 0.060509251523793467 0.064011560454097172 -0.063766988402654962 0.060010375780546979 0.060384367842413258 0.060703231291506003 0.060823366707919206 -0.06379053816275787 -0.062665438446144292 -0.062559138616786178 -0.061893116383782636
leaf_weight=4.7886658012866965 161.91543509066105 4.6517497748136538 2.8704071342945161 5.3857216238975516 2.8937254548072806 4.5132514238357535 3.286084026098254 3.5902021527290371 4.992071732878685 2.9061066657304755 3.0619292855262747 3.7253994941711452 21.579732522368438 2.8991599082946768 9.022467717528345 2.8406930565834072 3.9456463307142249 4.0771168917417553 2.9945668131113043 17.727172404527664 2.9118277430534354 3.009240895509719 117.41959814727306 19.28522852063179 14.137344717979429 16.632500767707825 3.3965798467397681 3.0180595368146887 4.8884649574756613 3.2341619580984107
leaf_count=31 1170 27 20 34 14 25 20 21 32 14 20 23 153 15 57 20 21 25 18 125 18 19 848 136 98 115 21 19 32 21
internal_value=0.000630817 0.0370256 -0.0107599 -0.0435002 -0.0579012 -0.0551601 0.0560454 0.0360132 -0.0113403 -0.0594742 0.056082 0.0573002 -0.0616032 -0.0636554 0.0596567 0.0555941 -0.0626905 0.0601476 -0.0616961 0.0596214 0.0603087 -0.0601316 0.0602347 0.0611653 0.0613521 0.0613964 -0.0611334 -0.0600665 -0.0607924 -0.060019
internal_weight=461.6 284.624 81.0337 54.3918 176.977 49.0061 203.59 31.0968 9.64382 174.083 26.642 21.4529 44.4928 39.7042 172.493 23.8539 36.805 23.58 32.8593 20.5679 148.639 171.177 145.727 28.3077 17.8627 20.7096 29.8648 168.168 26.4682 165.15
internal_count=3212 1955 530 350 1257 316 1425 201 59 1243 180 142 291 260 1224 165 245 160 224 145 1059 1229 1041 193 121 140 206 1210 185 1191
is_linear=0
shrinkage=0.05


Tree=23
num_leaves=31
num_cat=0
split_feature=7 10 9 8 10 12 9 8 6 0 7 0 9 13 13 8 11 2 10 9 11 8 7 11 8 11 13 13 6 11
split_gain=369.591 97.39 66.3572 25.1706 9.47966 7.69733 5.72687 11.7921 10.2032 2.56272 1.43307 0.757202 0.63399 0.19499 1.00176 0.157335 0.102625 0.0970309 0.0456236 0.0355542 0.0144194 0.013961 0.0137345 0.0102043 0.0123823 0.00984733 0.00908555 0.00708665 0.00636115 0.00567606
threshold=27.460077413843496 0.34966525333948956 0.47857858431244782 0.27734715776614571 0.64847172974250489 0.42967503153691805 0.26877888556310553 0.1549681905504233 3.7860794964979689 0.68561966826391807 19.95081491683829 0.30939960434309227 0.011170818534647794 0.15733454899027025 0.059789521769168873 0.17436948025972898 0.26466739708645443 0.00016325493807447429 0.51801250526495235 0.38760674035648124 0.2614348259162696 0.20756573105459267 25.439345289253765 0.28235867733219183 0.23165080383161604 0.24044995411920145 0.27187145679883756 0.38024581149064002 4.4825230699722622 0.36110971943755305
decision_type=2 2 2 2 2 2 2 2 2 2 2 2 2 2 2 2 2 2 2 2 2 2 2 2 2 2 2 2 2 2
left_child=1 2 3 5 9 12 7 8 -3 18 17 -9 -1 14 -8 16 19 -4 21 26 -13 27 23 24 -15 -19 28 29 -14 -2
right_child=4 6 10 -5 -6 -7 13 11 -10 -11 -12 20 15 22 -16 -17 -18 25 -20 -21 -22 -23 -24 -25 -26 -27 -28 -29 -30 -31
leaf_value=-0.0433595887678093 -0.059360485796829711 -0.065265678761700516 0.050790634431111453 0.061838063282275368 0.036416330533710232 0.0079472546064556834 0.060129525619101822 0.03583077448847425 0.038866735574290281 -0.015447197974091173 0.022102203035751611 0.063836487357199545 -0.059786139413666575 0.062064913912799481 0.034537656219050354 -0.074224122953411339 -0.069690230244605175 0.062897222858791388 -0.065894422197829108 -0.066299474780231862 0.060148336754123892 -0.062957095218863363 0.063171408681419433 0.059428519495266355 0.059776962677674045 0.060103859528450335 -0.06296176743363853 -0.06190195973320578 -0.061822762980761586 -0.061266896536012985
leaf_weight=4.6808130592107764 151.51667307317257 4.5171483904123324 2.8497531265020433 5.1843132823705664 2.6585281044244757 4.508763074874877 18.191043555736545 3.6734161972999599 4.9085496366024017 3.3490491509437552 2.8989802896976462 3.2822078913450268 20.730054557323466 8.6861371248960513 4.8415785729885092 2.8186402320861808 3.8204631358385077 3.9266539216041592 2.8551247417926779 2.8907646983861914 13.761831879615782 2.8983644396066657 2.8057151585817328 112.75875763595104 18.526342272758484 16.055391147732735 3.2723723351955405 2.9053738117218009 4.7040294855833045 4.0076698511838904
leaf_count=31 1143 27 20 34 12 25 132 23 32 20 19 20 153 57 33 15 21 25 17 18 99 19 18 848 136 116 21 19 32 27
internal_value=0.000622442 0.0365363 -0.0105831 -0.042765 -0.0572594 -0.0541995 0.0553745 0.0353268 -0.0110374 -0.0587459 0.0552172 0.0564209 -0.0607285 0.059019 0.05475 -0.0628548 -0.06195 0.0594218 -0.0596291 -0.0610141 0.0608586 -0.0595182 0.0597077 0.0596382 0.0605073 0.0606528 -0.0604819 -0.0594553 -0.0601628 -0.0594096
internal_weight=444.485 274.294 78.341 52.6102 170.191 47.4259 195.953 30.1432 9.4257 167.532 25.7308 20.7175 42.9171 165.81 23.0326 38.2363 35.4177 22.8318 164.183 31.5972 17.044 161.328 142.777 139.971 27.2125 19.982 28.7065 158.43 25.4341 155.524
internal_count=3212 1955 530 350 1257 316 1425 201 59 1245 180 142 291 1224 165 260 245 161 1225 224 119 1208 1059 1041 193 141 206 1189 185 1170
is_linear=0
shrinkage=0.05


Tree=24
num_leaves=31
num_cat=0
split_feature=7 10 9 12 10 13 9 8 6 2 7 11 1 11 10 9 8 2 11 10 7 7 9 8 11 8 8 11 13 11
split_gain=347.473 94.1108 65.2113 25.2285 7.4482 5.2933 3.84351 10.072 9.88457 3.71176 1.46684 1.4096 0.540828 0.2547 0.221702 0.149202 0.132223 0.101699 0.0908475 0.038512 0.0369604 0.0661966 0.0299674 0.0118655 0.0111958 0.0111631 0.00778192 0.0077379 0.00580301 0.006151
threshold=27.934655542706825 0.36417076938842446 0.47857858431244782 0.42614080665379289 0.64847172974250489 0.27187145679883756 0.26877888556310553 0.1549681905504233 5.0206245891960561 0.01644093186054172 20.427242219013085 0.41487763244533465 0.52516844292605314 0.18056364874423131 0.38455482407765329 0.32835507657049834 0.17436948025972898 0.00016325493807447429 0.2867966536832402 0.51801250526495235 25.888640628561582 23.399079205579522 0.38760674035648124 0.20756573105459267 0.28235867733219183 0.23165080383161604 0.13059229532957653 0.34360219940315201 0.28515699010146822 0.2028442939239111
decision_type=2 2 2 2 2 2 2 2 2 2 2 2 2 2 2 2 2 2 2 2 2 2 2 2 2 2 2 2 2 2
left_child=1 2 3 9 11 -5 7 8 -3 12 17 19 16 -9 -8 -16 18 -4 22 23 21 24 28 -2 25 -17 -19 -15 29 -1
right_child=4 6 10 5 -6 -7 14 13 -10 -11 -12 -13 -14 27 15 20 -18 26 -20 -21 -22 -23 -24 -25 -26 -27 -28 -29 -30 -31
leaf_value=-0.059455765863041556 -0.058912602999895328 -0.059053290497327771 0.049754331296534379 -0.014733638373682216 0.030197868258239221 0.06242955562259183 0.046329712862219319 0.045040227696175467 0.05035055561875134 -0.0029487849492504472 0.020859608502597392 -0.022754525996822834 -0.038633302645347485 0.06249879786145305 0.050266457066356289 0.061458261700900733 -0.072233487380253023 0.062239199856245875 -0.069418828199977314 -0.064936572927475858 0.064926108308093186 0.052963172406796426 -0.065360496133552826 -0.062203508139165614 0.058888509070008636 0.059302082011651804 0.059548491842503153 0.059752275723363758 -0.062017619507095015 -0.061935233207832618
leaf_weight=24.330816999077804 151.21185063570738 4.415271423757078 2.765800401568419 3.5711290836334211 2.4047795534133902 5.8852676898241043 3.6896030455827704 3.2876296341419247 3.8778869360685349 3.0032615438103667 2.8585800826549521 2.7173748314380637 2.6456597894430152 3.176048249006274 5.0334474444389334 8.9997922033071536 2.9173407033085814 3.1631239652633694 3.0517651289701453 2.7549179494380942 2.602178454399108 4.5278450027108184 2.7882779389619818 2.7895604446530333 114.31582800298929 18.026408888399601 17.858149394392967 13.317728616297243 3.0305631905794135 2.7879281565546981
leaf_count=185 1182 26 20 20 11 39 27 20 27 20 19 17 18 21 36 61 16 21 17 17 16 34 18 19 896 137 134 99 20 19
internal_value=0.000614477 0.0357721 -0.00930825 -0.0408857 -0.0571411 0.0332895 0.055398 0.038357 -0.00789597 -0.0566285 0.0547007 -0.0584581 -0.0605083 0.0577481 0.0584415 0.0587326 -0.0619957 0.0587675 -0.0611659 -0.059077 0.0590196 0.0589142 -0.0604012 -0.0589722 0.0591049 0.0600201 0.0599534 0.0602811 -0.0599426 -0.0597107
internal_weight=427.806 265.927 80.6577 54.012 161.878 9.4564 185.27 28.0746 8.29316 44.5556 26.6457 159.474 41.5524 19.7814 157.195 153.505 38.9067 23.7871 35.9894 156.756 148.472 145.87 32.9376 154.001 141.342 27.0262 21.0213 16.4938 30.1493 27.1187
internal_count=3212 1966 566 372 1246 59 1400 193 53 313 194 1235 293 140 1207 1180 275 175 259 1218 1144 1128 242 1201 1094 198 155 120 224 204
is_linear=0
shrinkage=0.05


Tree=25
num_leaves=31
num_cat=0
split_feature=11 8 10 3 4 9 0 0 10 13 10 8 12 0 13 0 13 13 9 10 9 9 12 9 10 3 9 9 13 13
split_gain=314.517 121.311 34.5905 16.927 14.106 12.652 4.70668 3.79816 3.07904 8.13572 1.5136 1.50961 1.31667 0.714264 0.328403 0.160657 0.809585 0.0840293 0.127188 0.0437246 0.0260251 0.0219982 0.0179948 0.0175296 0.01661 0.0107952 0.0107082 0.00910598 0.0082315 0.00804068
threshold=0.29794610466703159 0.23165080383161604 0.59856123131889649 0.2352573169664722 0.33896610148725037 0.43714620936264365 0.59066948084715831 0.73068407415834546 0.27429631422089773 0.1660884642738148 0.69271804271497761 0.26235524846635638 0.51655381352641816 0.36865560342505221 0.11294209543467533 0.2569209444283172 0.15365474697319001 0.41258603496917684 0.53448428887231192 0.40727514248044322 0.043322661569967259 0.11472499062840502 0.42967503153691805 0.29042703089358018 0.51253499921404677 0.21556578577204646 0.50837909154286487 0.45443666848133207 0.34660292750054023 0.22018052034239985
decision_type=2 2 2 2 2 2 2 2 2 2 2 2 2 2 2 2 2 2 2 2 2 2 2 2 2 2 2 2 2 2
left_child=1 2 4 8 7 14 -6 12 9 -2 -4 -3 17 -11 -5 16 -10 18 19 22 -21 24 27 -23 -17 -25 -15 28 -1 -13
right_child=3 11 10 5 6 -7 -8 -9 15 13 -12 29 -14 26 -16 21 -18 -19 -20 20 -22 23 -24 25 -26 -27 -28 -29 -30 -31
leaf_value=-0.058526182847868896 -0.020761745572303234 0.023365080502175457 0.020802822083927964 -0.060411390620832887 -0.022133824363624346 0.060863527284452323 0.066273911927559659 0.0014855856519597913 0.029207491234128038 0.031835986802990643 0.063173211407616156 0.061185903690753746 -0.027092423679821571 0.061757824857992763 -0.037876596535786747 0.06338021688775293 0.058873387014251037 -0.050570210032722822 -0.069901693171069534 -0.065821630026145245 -0.060440999801876664 0.054798360805526775 -0.061766771261582913 0.058448844208219691 0.059497891968684491 0.061045888246814707 0.058663313728927385 -0.061301534126618422 -0.060710617141760931 0.059060827836004443
leaf_weight=157.17408032715321 4.6536631137132671 3.2320457845926311 3.513908237218855 4.0045346021652204 3.1527657657861701 4.0170242264866829 2.881345197558403 2.6857350617647162 2.8472028523683539 2.814665548503398 5.2673265188932419 5.5911562442779568 3.3009328693151465 4.1592266559600821 2.7114022076129913 3.7648271024227133 11.961560159921644 2.9445974379777899 2.6775693297386161 3.1429127454757673 7.8865694776177406 3.2096474915742865 4.727411836385726 105.92172444611788 10.271563135087488 4.1585063338279715 8.5268578603863698 3.1475439593195906 4.4342909231781951 21.833557337522507
leaf_count=1275 31 20 21 29 21 28 19 16 21 21 35 39 21 28 20 25 95 18 16 21 58 24 34 865 79 29 68 23 32 170
internal_value=0.00020446 -0.0371384 -0.0508898 0.0514836 -0.0551931 -0.00932901 0.0200817 -0.0575574 0.0555054 0.0372161 0.0462182 0.0556851 -0.0583944 0.0546223 -0.0513135 0.0580988 0.0531697 -0.0589495 -0.0590842 -0.0589238 -0.0619742 0.0586721 -0.0587253 0.0584408 0.0605392 0.058547 0.0596779 -0.058638 -0.0585861 0.0594941
internal_weight=410.616 237.594 206.937 173.022 198.156 10.733 6.03411 192.122 162.289 20.1544 8.78123 30.6568 189.436 15.5008 6.71594 142.135 14.8088 186.135 183.19 180.513 11.0295 127.326 169.483 113.29 14.0364 110.08 12.6861 164.756 161.608 27.4247
internal_count=3202 1839 1610 1363 1554 77 40 1514 1286 148 56 229 1498 117 49 1138 116 1477 1459 1443 79 1022 1364 918 104 894 96 1330 1307 209
is_linear=0
shrinkage=0.05


Tree=26
num_leaves=31
num_cat=0
split_feature=8 9 6 12 3 3 8 13 4 8 0 0 2 1 12 12 5 3 8 3 0 9 3 4 5 2 4 6 13 3
split_gain=290.98 112.851 40.8908 13.9546 11.9568 10.2658 9.82056 5.73671 3.05306 2.99354 7.98616 1.59325 0.322881 0.204462 0.191757 0.0687763 0.0582941 0.0484232 0.0401094 0.0314467 0.0218331 0.018164 0.0153125 0.0195287 0.0348213 0.00655352 0.00615052 0.00727359 0.00612414 0.0050615
threshold=0.18661887418036344 0.47857858431244782 7.6872279033641933 0.57950299759595103 0.24117747977100956 0.2352573169664722 0.28700451602459848 0.49358368006311765 0.34779067324705076 0.22456085423348285 0.4177360250716402 0.15055159616170669 0.02055640486624298 0.44070956593213056 0.20587742248498561 0.44644102083828047 0.022014804868779467 0.17658387560115171 0.23777204174589564 0.2576600038589173 0.66798257216840218 0.28745708666398923 0.20706946602361889 0.21986545042705305 0.0013785370675809402 0.0033018465609466921 -1.0000000180025095e-35 4.9184340434990892 0.3754815554057524 0.12972627364206174
decision_type=2 2 2 2 2 2 2 2 2 2 2 2 2 2 2 2 2 2 2 2 2 2 2 2 2 2 2 2 2 2
left_child=1 2 3 7 9 11 -6 8 12 10 -2 -3 15 -12 -13 16 20 -16 -11 -17 22 25 23 26 -25 -20 -1 -28 -24 -4
right_child=4 5 29 -5 6 -7 -8 -9 -10 18 13 14 -14 -15 17 19 -18 -19 21 -21 -22 -23 28 24 -26 -27 27 -29 -30 -31
leaf_value=-0.060690052026109553 -0.027652461050765232 0.023596021405337939 0.059572610551088361 0.046102086372121563 -0.048140757716669889 -0.033671646919685626 0.060326248085699696 0.015653998316070211 -0.0077764662944610728 0.053699443076843781 0.043252760015669738 0.047916614332691766 -0.044437828201184922 0.059175628025372733 0.058236189984817235 -0.066548387283028337 -0.051329186875521494 0.063650805248149783 0.061754715695860864 -0.059443112113286282 -0.062886456810610211 0.058151173865656158 -0.058117387829169115 -0.065672820093423609 -0.059001654112888186 0.059383486970159938 -0.058332729325673675 -0.061058838797781512 -0.060428838284067837 0.062177473759451887
leaf_weight=3.7139231562614432 3.8288243412971488 3.8755453154444686 5.0987143665552122 3.3798526376485816 5.1905089393258077 3.7338448017835608 3.4898733422160149 2.7218583524227133 3.0403249859809867 4.750811204314231 2.5966495946049681 4.2899632453918484 4.1067275479435912 9.0173934027552587 20.082673445343975 3.856988973915576 2.8442802205681792 5.1978321224451056 3.7760748565197018 2.6116716712713242 2.8501277342438689 113.44597943872213 116.53312208503485 3.0657265111803991 5.4040769189596176 12.761186011135576 31.191406659781933 2.6550999209284774 2.9378442764282218 2.9402978643774986
leaf_count=29 30 30 39 23 39 24 25 18 18 38 21 34 32 71 167 24 22 35 27 20 19 951 983 21 43 99 259 20 21 20
internal_value=0.000202252 -0.0349971 -0.0499397 -0.0545912 0.052524 0.0449617 -0.00453253 -0.056406 -0.0574673 0.055822 0.0349706 0.0537401 -0.0582984 0.0556156 0.0576908 -0.0586188 -0.0584276 0.0593495 0.0582119 -0.0636797 -0.0585475 0.0583768 -0.0584728 -0.0592476 -0.0614163 0.0599249 -0.0587585 -0.0585466 -0.0581742 0.0605253
internal_weight=394.989 236.132 198.952 190.913 158.857 37.1799 8.68038 187.533 184.811 150.177 15.4429 33.446 181.771 11.614 29.5705 177.664 171.196 25.2805 134.734 6.46866 168.351 129.983 165.501 46.0302 8.4698 16.5373 37.5604 33.8465 119.471 8.03901
internal_count=3202 1901 1611 1552 1301 290 64 1529 1511 1237 122 266 1493 92 236 1461 1417 202 1115 44 1395 1077 1376 372 64 126 308 279 1004 59
is_linear=0
shrinkage=0.05


Tree=27
num_leaves=31
num_cat=0
split_feature=7 3 8 8 0 0 12 8 6 4 13 6 4 4 8 1 6 8 6 1 12 8 6 4 8 2 5 13 8 13
split_gain=301.859 70.2339 37.2862 19.2377 15.0353 8.42031 14.8132 8.00602 2.23144 1.65215 1.04312 0.831993 0.529706 0.433052 1.47653 2.21204 0.376005 0.149051 0.122791 0.0872474 0.070572 0.0186378 0.0226121 0.0122907 0.0103106 0.0103004 0.00726057 0.00624475 0.00448564 0.00375212
threshold=25.888640628561582 0.20133580736714576 0.20756573105459267 0.25061847847436558 0.6186743399405189 0.38528760782349963 0.34072162656567379 0.18454246022862228 5.2746001784400613 0.33896610148725037 0.22489387599951538 3.2336427904147893 0.19121621338900238 0.17751505352382221 0.099144023945131249 0.47473678526429663 6.3341770162654303 0.17436948025972898 4.5817502480720611 0.65468600609101679 0.3803177239538667 0.06786663780671727 1.2009049399768148 0.23875471650526731 0.20756573105459267 0.0073746403941764944 0.022014804868779467 0.38432192935669174 0.24428057454159149 0.38982747300062914
decision_type=2 2 2 2 2 2 2 2 2 2 2 2 2 2 2 2 2 2 2 2 2 2 2 2 2 2 2 2 2 2
left_child=1 5 4 9 8 6 7 11 18 16 -8 -1 -4 14 15 -7 19 -16 20 24 23 22 -15 25 26 -3 27 -2 29 -23
right_child=3 2 12 -5 -6 13 10 -9 -10 -11 -12 -13 -14 21 17 -17 -18 -19 -20 -21 -22 28 -24 -25 -26 -27 -28 -29 -30 -31
leaf_value=-0.066946556786680031 -0.057639841205049537 -0.058328160837436055 0.0342812767914683 0.064758655093075254 0.038562966725373883 -0.0029799713558770319 0.030992077275312887 0.049701349642917197 -0.010873413169694415 -0.017280510070082578 0.058098667987317935 -0.031629682523536741 0.058842312687302945 0.063585162102618886 0.044899985660920787 0.058878860044415039 -0.038738114323104728 0.05774883547782305 -0.048459162124882868 -0.047985456062997756 -0.06794485916286494 0.059178590369357312 0.058694198757095278 -0.062128432724936858 -0.061027903178036462 -0.060966488487747987 -0.060482963254665879 -0.060000021658316208 0.05755987763058721 0.05788435214664981
leaf_weight=4.0470481067895907 134.80184399336576 14.589585572481171 2.7326162606477729 3.338597670197486 4.9403717145323744 2.8345898836851147 4.6185772642493275 2.6630860418081284 2.5835661366581908 2.6259226500987998 15.327568829059599 2.8363463953137398 11.162996321916578 2.9144364222884169 2.498598866164687 2.9484701305627823 2.6809138208627692 23.349638126790524 2.34841164946556 2.304778240621089 2.767533302307128 8.6140462234616297 12.493154861032961 3.7322048991918555 2.4198905751109114 4.956157572567462 2.3650454208254805 2.8621260300278655 75.401330970227718 16.004659324884415
leaf_count=28 1187 123 20 21 29 21 36 21 19 17 130 20 89 22 21 24 21 203 19 19 16 69 103 26 18 38 19 21 664 138
internal_value=0.000200253 0.0368965 -0.015536 -0.053951 -0.0424424 0.0516902 0.0273072 -0.0239135 -0.0553613 -0.0565921 0.0518221 -0.052394 0.0540123 0.0565802 0.0513971 0.0285585 -0.0572922 0.0565068 -0.0594093 -0.0576359 -0.0603966 0.0580006 0.0596194 -0.0594992 -0.057792 -0.0589972 -0.0577361 -0.0576889 0.0577512 0.0583372
internal_weight=379.764 226.365 49.8134 153.399 35.9178 176.552 29.4926 9.54648 30.9775 150.061 19.9461 6.88339 13.8956 147.059 31.6313 5.78306 147.435 25.8482 28.3939 144.754 26.0455 115.428 15.4076 23.2779 142.449 19.5457 140.029 137.664 100.02 24.6187
internal_count=3202 1879 379 1323 270 1500 235 69 241 1302 166 48 109 1265 269 45 1285 224 222 1264 203 996 125 187 1245 161 1227 1208 871 207
is_linear=0
shrinkage=0.05


Tree=28
num_leaves=31
num_cat=0
split_feature=7 11 8 12 8 1 3 8 1 6 0 12 0 5 1 12 7 3 3 0 8 4 3 8 5 8 11 8 4 6
split_gain=284.379 72.6351 45.228 18.6038 13.2531 7.22117 5.47482 7.18166 1.66562 0.775607 0.751125 3.32821 0.692795 0.354515 0.0976545 0.0754175 0.0536136 0.0360305 0.175158 0.0236336 0.0236167 0.0107369 0.0104068 0.00902258 0.00882912 0.00501437 0.00402011 0.00264479 0.00256681 0.00249378
threshold=27.085951167461428 0.22281154621296842 0.20199974514210556 0.48153237164609686 0.25061847847436558 0.62315454254837455 0.23663031995786063 0.18021007332049357 0.33195158643247352 5.6439020124032266 0.38528760782349963 0.31125144134684563 0.62219800745910259 0.015531636928282374 0.64819845377338747 0.31577414384517244 -1.0000000180025095e-35 0.21093914520598231 0.20133580736714576 0.56358797394333104 0.28700451602459848 0.32596861451647402 0.22280271775531507 0.20756573105459267 0.00080275347842328614 0.20360401857950799 0.29282017274004862 0.26593016190975366 0.13107552399539266 5.0206245891960561
decision_type=2 2 2 2 2 2 2 2 2 2 2 2 2 2 2 2 2 2 2 2 2 2 2 2 2 2 2 2 2 2
left_child=1 2 3 5 12 13 10 -8 -4 -5 11 -3 14 15 21 19 -17 18 25 22 -19 23 24 26 -1 -12 29 -10 -26 -2
right_child=4 6 8 9 -6 -7 7 -9 27 -11 17 -13 -14 -15 -16 16 -18 20 -20 -21 -22 -23 -24 -25 28 -27 -28 -29 -30 -31
leaf_value=-0.062029725235074606 -0.057132229531285265 0.0089601125624891066 0.01975005853704348 0.025103695003220662 0.066811224382312975 0.030181933185754052 -0.034703679594053204 0.059843602845958827 0.059586530308645816 0.061425856497966905 0.057814748258026342 0.05740692159327479 -0.037408380810124875 -0.039737736562524023 -0.046800103396518501 -0.069094140330990733 -0.059504163753215128 0.063965302873664739 0.044074337392025806 -0.063676313759919487 0.058081550926094461 -0.060589710233302965 -0.057522819883498867 -0.060411512664852354 -0.057368218050904973 0.057089837300955563 -0.058366307084848995 0.057852491347836155 -0.059495193611567493 -0.057976672849656512
leaf_weight=2.7741100713610738 112.17300815880299 4.5112823918461826 3.4015832915902164 2.9440623968839637 2.2104185074567786 2.4564518630504599 3.9446060806512815 4.0920028761029243 2.6027535349130657 2.9348863512277603 32.763460136950016 16.551252029836178 4.5624210983514777 2.3241876140236846 2.2142660543322554 3.4408157616853714 2.5282996743917456 3.0987199097871772 2.5617137327790251 2.260802134871482 3.7932454869151115 2.5661897584795943 14.86755684763193 2.3247609063982955 2.4446080029010773 87.739546589553356 7.8381964638829222 14.173268511891363 3.3790597319602966 9.4819910153746587
leaf_count=20 1038 31 25 21 12 17 26 31 20 21 288 148 36 18 19 22 20 20 21 15 32 19 134 18 22 810 65 123 26 84
internal_value=0.000197985 0.0357001 -0.0099553 -0.039305 -0.0546725 -0.0526085 0.0536494 0.013437 0.0516528 0.0432364 0.0557893 0.0470303 -0.0565748 -0.0585866 -0.0572149 -0.0599688 -0.0650322 0.0572089 0.0570119 -0.058794 0.060727 -0.0573865 -0.0583236 -0.0573242 -0.0597082 0.0572869 -0.0572688 0.0581215 -0.0586024 -0.057198
